/***********************************************************************************************************************
* DISCLAIMER
* This software is supplied by Renesas Electronics Corporation and is only intended for use with Renesas products. No 
* other uses are authorized. This software is owned by Renesas Electronics Corporation and is protected under all 
* applicable laws, including copyright laws. 
* THIS SOFTWARE IS PROVIDED 'AS IS' AND RENESAS MAKES NO WARRANTIES REGARDING
* THIS SOFTWARE, WHETHER EXPRESS, IMPLIED OR STATUTORY, INCLUDING BUT NOT LIMITED TO WARRANTIES OF MERCHANTABILITY, 
* FITNESS FOR A PARTICULAR PURPOSE AND NON-INFRINGEMENT. ALL SUCH WARRANTIES ARE EXPRESSLY DISCLAIMED. TO THE MAXIMUM
* EXTENT PERMITTED NOT PROHIBITED BY LAW, NEITHER RENESAS ELECTRONICS CORPORATION NOR ANY OF ITS AFFILIATED COMPANIES 
* SHALL BE LIABLE FOR ANY DIRECT, INDIRECT, SPECIAL, INCIDENTAL OR CONSEQUENTIAL DAMAGES FOR ANY REASON RELATED TO THIS 
* SOFTWARE, EVEN IF RENESAS OR ITS AFFILIATES HAVE BEEN ADVISED OF THE POSSIBILITY OF SUCH DAMAGES.
* Renesas reserves the right, without notice, to make changes to this software and to discontinue the availability of 
* this software. By using this software, you agree to the additional terms and conditions found by accessing the 
* following link:
* http://www.renesas.com/disclaimer 
*
* Changed from original python code to C source code.
* Copyright (C) 2017 Renesas Electronics Corporation. All rights reserved.
***********************************************************************************************************************/
/***********************************************************************************************************************
* File Name    : weights.h
* Version      : 1.00
* Description  : Weights and biases of the layers
***********************************************************************************************************************/
/**********************************************************************************************************************
* History : DD.MM.YYYY Version  Description
*         : 16.06.2017 1.00     First Release
***********************************************************************************************************************/

#ifndef WEIGHTS_H_
#define WEIGHTS_H_
// Default Input, Output scale and zero point values of the model
const  TPrecision ip_op_scale[] = {0.0,0.0};
const  TsInt8 ip_op_zero_point[] = {0,0};
// Weights and bias tensor values for required layers
const  TPrecision conv2d_weights[] = {-0.0016921490896493196,0.002446966478601098,-0.0005403741379268467,0.0028009284287691116,-0.0010084398090839386,0.0008445924031548202,-0.001592485699802637,0.001591465319506824,0.0018712981836870313,-0.001793097471818328,0.0026343618519604206,-0.0004985187551937997,0.0009777933591976762,-0.0035772144328802824,-0.0014812949812039733,0.002217864152044058,0.002301909029483795,-0.0031156251206994057,-0.0006398709956556559,-0.00027144094929099083,-0.0010678567923605442,0.0023977565579116344,-0.0018459699349477887,0.003399926470592618,0.0007780473097227514,0.0026086040306836367,-0.0035042164381593466,-0.0015736123314127326,-0.0021859589032828808,-0.0022497789468616247,-0.001311949803493917,-0.0014121392741799355,0.0010971922893077135,0.001810841728001833,0.0008293285500258207,0.0022735220845788717,0.0013012357521802187,0.002587387338280678,-0.0017739888280630112,-0.0014668104704469442,7.527876732638106e-05,0.0027931060176342726,0.0021957550197839737,-0.00025379579165019095,-0.000850347219966352,-0.0020380415953695774,-1.128773783420911e-05,-0.0018992668483406305,-0.0009324005804955959,-0.0021262087393552065,0.001169944298453629,-0.001006291015073657,0.001926116761751473,-0.002866920083761215,0.0017709520179778337,-0.00081713154213503,0.0011487625306472182,0.002531246980652213,-0.0037090368568897247,0.0013925505336374044,0.002462150529026985,0.001116730272769928,-0.00032578283571638167,0.001872061169706285,0.0014090553158894181,0.002123575657606125,0.000657493423204869,0.0025935678277164698,0.003331415355205536,-0.001202362240292132,0.0032719620503485203,-0.003103921189904213,0.0019298327388241887,-0.0008814528118818998,0.00044133441406302154,-0.002761188196018338,-0.0017800529021769762,-0.001319544273428619,0.0005107521428726614,-0.0023855380713939667,0.0009829665068536997,-0.0023276591673493385,0.002407947089523077,-0.00014450674643740058,0.0006941473693586886,-0.0034443773329257965,-0.0013100256910547614,0.0008766755345277488,-0.0026012423913925886,-0.0004049615527037531,0.0013106452533975244,0.0023433694150298834,-0.0030006279703229666,0.0018383177230134606,0.0028532296419143677,0.0017887827707454562,0.001097585423849523,0.0003434967075008899,0.002176062436774373,0.0004295892140362412,0.0013708251062780619,-0.0010992914903908968,-0.0023198698181658983,-0.002175053348764777,0.0030913713853806257,8.406965207541361e-05,-0.0014319228939712048,0.003398741828277707,-0.001170953968539834,0.002839726395905018,-0.002000772161409259,-0.0018267127452418208,0.0029597424436360598,0.001000995165668428,0.0023716301657259464,0.0014108851319178939,-0.0009236784535460174,-0.0029182143043726683,-0.0007514641038142145,-8.454274211544544e-05,0.0030864174477756023,0.001096361200325191,0.00040968376561068,0.001897890237160027,0.000720053561963141,-0.002794875530526042,0.002701361197978258,-0.0006972479750402272,-0.0007999243098311126,-0.001211322145536542,0.001762854284606874,0.0010078460909426212,-0.0030560139566659927,-0.0034340706188231707,-0.002531105186790228,0.0009066107450053096,-0.0003725504211615771,-0.0035161739215254784,-0.002199350856244564,-0.0008260140893980861,0.0011638295836746693,-0.0005947401514276862,-0.0014208124484866858,-0.002639356767758727,-0.0005672785337083042,0.0013658058596774936,-0.0004447898827493191,0.002715837676078081,-0.0009586268570274115,0.0005895380745641887,-0.00048159254947677255,-0.0013233378995209932,-0.0004602419794537127,0.0011890383902937174,-0.002706595929339528,0.0018273313762620091,-0.000636550597846508,-0.003663717769086361,-0.0005419137887656689,0.0007634750218130648,-0.0038550328463315964,-0.00021261171787045896,0.0012391405180096626,-0.003640706418082118,0.0008888478623703122,0.0018198119942098856,0.0017230433877557516,0.0026356629095971584,-0.0018396523082628846,-0.0018333718180656433,-0.0028116577304899693,-0.0027463864535093307,-0.0024080711882561445,0.0011406379053369164,0.0011780863860622048,1.5239137610478792e-05,0.003178938524797559,-0.0028630744200199842,0.00035849789856001735,-0.00352686969563365,0.003165516071021557,0.0024198328610509634,-0.0027496162801980972,0.0009239247301593423,-0.003129524178802967,-0.0010014716535806656,0.001384878414683044,-0.0031091978307813406,0.0030134832486510277,0.003027011174708605,0.0036880592815577984,-0.00029215874383226037,-0.0005889083258807659,-0.0025875186547636986,0.000586292939260602,-0.0009263352840207517,0.0016471315175294876,-0.002964552491903305,-0.0007816858706064522,-0.0004080951912328601,0.0007566448184661567,0.0024365116842091084,-0.0004377815639600158,-0.001440699677914381,0.0003955299034714699,0.001962499227374792,0.0010151461465284228,-6.95685448590666e-05,-0.0016494205920025706,-0.001275454880669713,0.001905882149003446,-0.00017620545986574143,0.00023717561271041632,0.003022009739652276,0.000917173339985311,-0.0009673853055574,-0.0006614273297600448,-0.0016540095675736666,0.0021863053552806377,0.0018490067450329661,-0.002572932979092002,-0.003290061140432954,0.0011809652205556631,-0.00199799588881433,-0.0006089125527068973,-0.0009229863644577563,0.002367269014939666,-0.0029560215771198273,-0.00036791403545066714,0.0032523442059755325,0.0008346023969352245,-0.0009143405477516353,0.003482706844806671,0.0005634000990539789,0.0015348582528531551,-0.0019430790562182665,-0.0017257402651011944,0.0013177443761378527,0.003155728802084923,-0.0022289592307060957,-0.0026835447642952204,0.002797442954033613,0.0002780335198622197,-0.0031567260157316923,-0.0008846574346534908,-0.0009931972017511725,0.0011631203815340996,0.0013534142635762691,0.001484134467318654,-0.003035136964172125,0.0018374755745753646,-0.001419419888406992,0.00306497048586607,-0.0006262179231271148,0.0027351337485015392,0.0025408375076949596,-0.0014156042598187923,0.0007335979025810957,0.0033884968142956495,-0.0013812112156301737,-0.0017989234765991569,-0.0018601666670292616,-0.002772499108687043,0.00300621148198843,-0.000978690106421709,0.002912471303716302,-0.00038132010377012193,-0.0019349921494722366,0.0015907622873783112,-0.0029611242935061455,0.001910452265292406,-0.0017543507274240255,0.001724454341456294,0.000359631929313764,0.002433334942907095,0.0012658528285101056,-0.002363567939028144,-0.0029275375418365,0.0008666290086694062,-0.003487069858238101,-0.0004769949009642005,0.0015276450430974364,-0.0013905944069847465,0.0018114482518285513,0.0019798995926976204,0.0033396361395716667,-0.0026707411743700504,-0.0010060116183012724,-0.003525174455717206,0.0019578407518565655,-0.002721000462770462,-0.0009371836204081774,0.00010993487376254052,-0.001949193188920617,-0.0016412209952250123,-0.0015927088679745793,-0.00038481116644106805,0.002271434757858515,-0.0002845285052899271,-0.0016494885785505176,-0.0035537653602659702,0.000277707411441952,0.0001444325316697359,0.0008779207128100097,0.002427052240818739,-0.0005480614490807056,-0.0013983903918415308,-0.003593957284465432,-0.0027372234035283327,-0.002936894539743662,-0.0020256685093045235,-0.0033923799637705088,0.0034003187902271748,0.0023666885681450367,-0.0021760333329439163,-0.001290943007916212,0.002559665823355317,-0.0028156402986496687,-0.001936695771291852,0.002152067143470049,0.0014789861161261797,-0.0020078043453395367,0.0002038086240645498,0.0015324032865464687,-0.0012108413502573967,0.0006486313068307936,-0.002147902036085725,-5.029209569329396e-05,0.003121426794677973,-0.0017783314688131213,-0.0011187938507646322,-0.0036213339772075415,0.0017636114498600364,-0.0016679206164553761,0.003431582124903798,0.0019260679837316275,-0.003212255658581853,-0.003275051014497876,0.003221294842660427,0.003428355325013399,0.0036303543020039797,-0.0025861142203211784,-0.0015732473693788052,0.002980275312438607,-0.0030954761896282434,-0.001936552464030683,-0.0022927129175513983,0.0019952240400016308,-0.0028923237696290016,0.0033690291456878185,-0.0027679004706442356,-0.0017475461354479194,-0.0032036982011049986,0.0022422033362090588,-0.001935134525410831,0.0017621750012040138,-0.0014479337260127068,-0.0004045342793688178,0.0017585447058081627,-0.00011417312634875998,0.0018029642524197698,0.0012763779377564788,0.0033779835794121027,-0.001957011641934514,0.0024597696028649807,-0.0002208813966717571,0.0011655243579298258,-0.0036212645936757326,-0.0007729810895398259,0.00024599453900009394,-0.002083940664306283,0.0022544909734278917,-0.0005952150095254183,-0.0014840811491012573,-0.0023772562853991985,-0.0025032549165189266,-0.000882352062035352,-0.0019043916836380959,0.0030152839608490467,-0.0017977224197238684,-0.0019636466167867184,-0.0002143262536264956,-0.002690888475626707,0.0036049545742571354,-0.0022865370847284794,-0.001974534010514617,0.0016147391870617867,0.0008050088654272258,-0.0024179962929338217,0.0010784759651869535,0.00040881274617277086,0.0022392719984054565,-0.002104745013639331,-0.0025943017099052668,0.0014729953836649656,-0.0032424754463136196,-0.0033429518807679415,0.00319968000985682,-0.00257121748290956,4.3308846215950325e-05,-0.002397316973656416,-0.0028323614969849586,-0.0022558614145964384,-0.0035847285762429237,0.002639535116031766,0.0007770212832838297,-0.0025683839339762926,-0.00179834954906255,-0.0005325755337253213,0.003462775144726038,0.0011355550959706306,4.006027666036971e-05,0.0030969660729169846,0.0016464146319776773,-0.0033110189251601696,0.002541501075029373,-0.002026820322498679,-0.003086172277107835,0.00016709846386220306,0.002812469145283103,-0.0020578636322170496,1.717305349302478e-05,0.0017627646448090672,2.3187454644357786e-05,0.0015665184473618865,0.0018386607989668846,0.0004180653195362538,-0.0006977114244364202,0.001263054204173386,-0.003611881984397769,-0.0029911487363278866,0.0031781832221895456,0.003654961474239826,0.001529482426121831,0.00046297957305796444,5.7760840718401596e-05,-0.0028973580338060856,-0.0016312201041728258,0.0019455499714240432,-0.0031129836570471525,0.0009120379691012204,-0.001552031491883099,0.00020740773470606655,-0.002910526003688574,-0.001001582364551723,-0.00031315971864387393,-0.001796221942640841,0.0005370977451093495,-3.473092510830611e-05,0.00038768138620071113,0.0013747629709541798,0.0028186291456222534,0.001697965431958437,0.002627782989293337,0.0029107003938406706,-0.0032620190177112818,0.0006348202005028725,0.000635583302937448,0.00041218058322556317,-0.0014103562571108341,-0.0018816335359588265,-0.0002534662198740989,-0.002084591658785939,0.0011360630160197616,-0.0033828222658485174,-0.0025312292855232954,0.0023914072662591934,-0.0009578024037182331,0.002783778589218855,0.0018890687497332692,-0.003108659293502569,-0.00022858468582853675,0.00015003782755229622,0.0014212314272299409,-0.0006372619536705315,0.0029673210810869932,0.0027071372605860233,-0.001414692960679531,-0.0011772738071158528,-0.0007390164537355304,0.0020378839690238237,0.002697891788557172,-0.0015738955698907375,-5.011627945350483e-05,0.0003749811148736626,-0.001050017075613141,0.0021575798746198416,0.002732967957854271,-0.0013014187570661306,-0.0006374724907800555,-0.0016228690510615706,-0.002427196130156517,-0.0025875489227473736,-0.000595146615523845,-0.0020099475514143705,0.0005146363982930779,0.003255503950640559,-0.0003750925825443119,0.003551885485649109,-0.0035472537856549025,-0.0009417430264875293,0.0014263411285355687,-0.0032570145558565855,0.0002995726536028087,-1.6372388927266002e-05,-0.0033261002972722054,-0.002121767494827509,-0.0006911940290592611,-0.0025059094186872244,-0.0010044700466096401,0.0014589156489819288,0.0007333607645705342,-0.0003043590986635536,0.0003557286981958896,0.002068842761218548,0.002858191030099988,0.0010491682915017009,-0.0014341712230816483,-0.0025009233504533768,-0.002725077560171485,0.003476714249700308,-0.0004586791037581861,0.0031691412441432476,0.00020468622096814215,-0.0032310562673956156,0.0036131413653492928,0.0023526367731392384,-0.002961899619549513,0.0032393280416727066,-0.0013672272907570004,0.00030180151225067675,-0.00346207688562572,-0.0029346568044275045,-0.003371489467099309,-0.003483743406832218,-0.0010680319974198937,0.000954725022893399,-0.001372594735585153,-0.0036233768332749605,0.0021052805241197348,0.0010305101750418544,0.0035706148482859135,-0.001108783995732665,0.003010244108736515,-0.00026433420134708285,-0.0009442316368222237,-0.0024940886069089174,-0.0009998921304941177,-0.003190710674971342,-0.00277597364038229,0.0018849583575502038,-0.0002116112009389326,0.0035612827632576227,-4.480320421862416e-05,-0.0024052669759839773,-0.0007663147407583892,-0.0028876576106995344,0.002954138908535242,0.0022176289930939674,0.002976134652271867,0.0013358565047383308,-0.002519541885703802,-0.0036870483309030533,0.0017031108727678657,0.001837661024183035,0.0024045947939157486,-0.002631799317896366,0.0003328467719256878,-0.0012512241955846548,0.0019253288628533483,-0.0015687301056459546,0.0034047714434564114,-0.00047107439604587853,0.0028709026519209146,0.0021773576736450195,-0.0007863733917474747,-0.0013997186906635761,-0.0016879033064469695,-0.0010138169163838029,0.002200871706008911,-0.0013323271414265037,-0.001458947779610753,0.0012402699794620275,0.0021047168411314487,0.0016799339791759849,-0.002320906613022089,-2.25494568439899e-05,-0.0017624611500650644,-0.001133118523284793,-0.002854315098375082,0.0007771308883093297,0.0022141626104712486,-0.0013071404537186027,0.0012963834451511502,0.0008721254416741431,-0.0003919958835467696,0.00029312213882803917,0.0018864875892177224,-0.0018904152093455195,-0.002722217235714197,-0.0010299835121259093,-0.001083826762624085,-0.002899693325161934,6.8895419644832145e-06,0.0026439568027853966,0.0023595059756189585,-0.0013354034163057804,0.002299328101798892,0.0027484337333589792,0.00044889398850500584,0.0028993412852287292,-0.000642121653072536,0.0030323804821819067,0.00017281858890783042,0.0007221651030704379,-0.001828229520469904,0.002310819225385785,0.00226548220962286,0.0005195367266424,0.0017802271759137511,0.0017088624881580472,0.002626487286761403,-0.0029393406584858894,0.0022427327930927277,0.002301009837538004,-0.0025167460553348064,-0.0011885428102687001,0.0011800448410212994,-0.00098436139523983,-0.0015153123531490564,0.003527511842548847,-0.002579390536993742,-0.00022250399342738092,0.000698376854415983,-0.0002699563920032233,-0.0016827492509037256,0.0015559853054583073,0.0025828308425843716,0.002490623388439417,-0.0004505923134274781,-0.002745019970461726,0.0010647921590134501,0.0018393761711195111,-0.000697910669259727,0.0019489079713821411,0.0005824377876706421,0.0033104154281318188,-0.0011816569603979588,-0.001829262706451118,0.0011916105868294835,-0.0025654775090515614,0.0011425266275182366,0.0020017744973301888,-0.0031505331862717867,-0.0022106245160102844,0.0009855014504864812,0.002769862301647663,-0.0030809270683676004,4.1057726775761694e-05,-0.00015711442392785102,-0.0011247782967984676,-0.0014927315060049295,0.0033187195658683777,0.0005644189659506083,-0.0016009993851184845,-0.0017286419169977307,0.0026750953402370214,0.0015435568057000637,0.0006176850292831659,-0.00242606271058321,-3.839352211798541e-05,-0.0023832591250538826,-0.0006673571188002825,0.0008872867911122739,-0.002368133282288909,-0.00021749593724962324,0.0002843471884261817,-0.0029262795578688383,-0.0008336676401086152,-0.002713962458074093,-0.0023901942186057568,-0.00178053870331496,-0.0032959673553705215,-0.0009146243683062494,-0.003556575858965516,0.0007420002948492765,0.00017171615036204457,-0.002231133636087179,0.0017286399379372597,0.0008823413518257439,-0.00023283084738068283,-0.0016315770335495472,-0.0012516048736870289,0.0032888567075133324,0.0026341532357037067,-0.0015635158633813262,0.0004941296065226197,0.0021631259005516768,-0.0004655264492612332,-0.0030845736619085073,0.0017163270385935903,0.002687035594135523,0.0036060733254998922,-5.203506589168683e-05,-0.003535309573635459,-0.001155732898041606,0.0015797638334333897,0.0033038784749805927,0.0036679969634860754,0.002120861317962408,0.003131844336166978,-6.205761746969074e-05,-0.002020337851718068,-0.00010017976455856115,-0.0014980079140514135,-0.0006928457296453416,-7.310121145565063e-05,0.0003825457242783159,-0.0025210240855813026,0.003476092591881752,0.0030467649921774864,0.0020848186686635017,0.001038084621541202,0.002737178700044751,0.0004736093105748296,-0.0004836785956285894,0.00010932052828138694,-0.0038030119612812996,-0.0013856005389243364,0.001274677226319909,-0.0007143151015043259,0.001777161844074726,0.0011102552525699139,-0.0011540562845766544,-0.0023900459054857492,0.002407258143648505,0.0020774961449205875,-0.003186850342899561,0.0024486188776791096,0.0002609980583656579,-0.002078167861327529,-0.0011575634125620127,-0.00051040796097368,-0.0035818663891404867,0.001184019260108471,0.0016853113193064928,-0.00018357396766077727,-0.0003290590248070657,-0.0032062267418950796,-0.0004520856309682131,0.0027665270026773214,-0.000886732479557395,-0.00021027382172178477,-0.0020917749498039484,0.0004020515480078757,0.0030587746296077967,0.0014861751114949584,-0.0023552225902676582,-0.0001440495834685862,0.002563679590821266,0.0008303267532028258,-0.001979572232812643,0.0014759410405531526,0.0030983423348516226,0.0005148614873178303,0.001343493815511465,0.0018826712621375918,0.0030612994451075792,0.00131543492898345,0.0016709280898794532,0.0020909474696964025,0.0011069338070228696,7.370457024080679e-05,-0.00020601594587787986,-0.0018778301309794188,0.002283584326505661,-0.0037995947059243917,0.0021607265807688236,0.0014429448638111353,-0.0022232134360820055,0.0021314688492566347,-0.0014025205746293068,-0.00274884095415473,-0.0002984557067975402,-0.0029065487906336784,0.0024103468749672174,0.0030628107488155365,-0.001025764155201614,-0.003179367398843169,-0.0020966194570064545,-0.0026107081212103367,0.0019424667116254568,-0.0019175162306055427,0.0019305996829643846,-0.0024611514527350664,-0.0006259861402213573,0.0012466086773201823,-0.0025482559576630592,-0.00339529849588871,-0.00027239829069003463,-0.00025700521655380726,0.0006406304310075939,0.0024741780944168568,0.0014863907126709819,-0.000692663888912648,0.00016739092825446278,0.0025331731885671616,0.0013608812587335706,-0.0007130368030630052,-0.0009907057974487543,-0.001144738169386983,0.0026933338958770037,-0.00275039067491889,-0.0024543991312384605,-0.0007412444683723152,-0.0037646472919732332,-0.0021903442684561014,-0.0034859441220760345,-0.0027130269445478916,-0.002852183301001787,-0.00110918702557683,0.0020531935151666403,-0.0019846244249492884,0.003275015391409397,0.002305283909663558,0.0015198432374745607,-0.00041199219413101673,0.0027757349889725447,-0.0009120793547481298,-0.0006026005139574409,-0.003062648233026266,0.003225775668397546,0.0030074166133999825,0.003390776924788952,-0.0013427396770566702,0.0030730024445801973,-0.0032522159162908792,-0.0007178471423685551,-0.0026190956123173237,-0.0032198834232985973,1.979588887479622e-05,0.001625944976694882,-0.0009565266664139926,0.0031731845811009407,-0.0035846256650984287,-0.0011837484780699015,-0.0024045829195529222,0.0017972575733438134,0.0018372382037341595,0.00047883210936561227,0.0032164985314011574,-0.003412680933251977,-0.0031764123123139143,-6.461719021899626e-05,-0.000491059385240078,-4.8385314585175365e-05,0.0022716678213328123,-0.0012216927716508508,0.0007511901785619557,0.0024276035837829113,0.002001635730266571,-0.002052695956081152,-0.0016884180950000882,-0.003571790410205722,-0.002255295868963003,-0.0028622178360819817,0.0034873669501394033,-0.0009112909319810569,0.0018007877515628934,-0.0033121134620159864,-0.0002516584936529398,0.00014720027684234083,0.0030414341017603874,-0.0030644831713289022,0.0014143772423267365,0.0015480834990739822,0.0025338137056678534,0.0029463719110935926,-0.0005042829434387386,0.0014739176258444786,0.0010808041552081704,0.002766371937468648,0.0032821609638631344,0.0005688000237569213,0.00045044434955343604,-0.0024386101868003607,0.0004833780985791236,-0.0007132504833862185,-0.003091299207881093,-7.143385300878435e-05,0.0030400478281080723,-0.003583872690796852,0.0016458999598398805,-0.0032721601892262697,-0.0005304663791321218,-0.002278134459629655,3.130383265670389e-05,0.0024485522881150246,-0.0008978233672678471,-0.0026379097253084183,-0.00010786283382913098,-0.002137446776032448,-0.003256563562899828,0.0001844090729719028,-0.0009966515935957432,-0.0035372981801629066,0.0004956327029503882,0.002493154490366578,0.0007308932836167514,0.0009910640073940158,0.001331442384980619,0.0012554317945614457,-0.0015078429132699966,0.0024757569190114737,0.0034365057945251465,0.001722402055747807,-0.0016582923708483577,0.0002458749513607472,-0.0005968730547465384,0.002608942100778222,0.00036066968459635973,0.001518840785138309,-0.0032768151722848415,0.0003453060635365546,-0.0029884278774261475,0.003251727670431137,0.002759528113529086,-0.0007848928216844797,-0.002015352249145508,-0.003707503667101264,0.003107769414782524,-0.0011033847695216537,0.0029168224427849054,0.00225097150541842,-0.0021824201103299856,-0.0032714353874325752,0.000784807896707207,0.002567172283306718,-0.0016568934079259634,-0.0008091268828138709,-0.0014249668456614017,0.0001847200037445873,0.0008329747943207622,-0.002918406156823039,-0.000775040767621249,0.0018579344032332301,-0.003277758602052927,-0.001095498912036419,-0.00347704254090786,-0.003174914512783289,0.0008610147051513195,-0.003453061217442155,-0.0034074371214956045,-0.002927455585449934,-0.0035292741376906633,-0.0020465641282498837,0.0006941258325241506,-0.003374147228896618,-0.001604537246748805,0.0016702249413356185,0.0014665905619040132,6.238143396330997e-05,-0.0025244185235351324,-0.0025258553214371204,-0.0012769483728334308,0.0024574382696300745,0.0017313358839601278,-0.0003344079595990479,0.0005066561861895025,-0.0021372269839048386,0.001760375453159213,-0.0017528762109577656,0.002243676455691457,-0.0035569381434470415,-0.00044791604159399867,-0.003140759887173772,0.0020981733687222004,-0.0025274455547332764,0.0019373567774891853,0.0014974105870351195,0.0028773131780326366,0.0032721490133553743,0.0026829722337424755,-0.003006510902196169,-0.002415779046714306,-1.855848495324608e-05,2.727115133893676e-05,0.0011649110820144415,0.00046331988414749503,5.13795021106489e-05,-0.0013975220499560237,1.1860748600156512e-05,-0.0023820726200938225,0.001885691424831748,0.0005901373224332929,-0.002545710885897279,-0.002299720887094736,0.0001733549579512328,0.002186700003221631,-0.002932659350335598,0.002252735197544098,-0.0007797103025950491,-0.0005947527824901044,-0.0003547928936313838,-0.0017733331769704819,0.0030228449031710625,-0.0032010336872190237,-0.0024199713952839375,0.003308699233457446,-0.001177821191959083,-0.0008701040642336011,0.0004837565356865525,0.0008305673254653811,0.0006799152470193803,0.00109699962195009,-0.0031485860235989094,-0.003425705013796687,0.0023883599787950516,0.003001721343025565,-0.0019126401748508215,-0.0002703980135265738,0.001997515093535185,-0.0012023308081552386,-1.846776831371244e-05,-0.002811935031786561,0.001465271576307714,-0.0010828003287315369,0.0025451616384088993,-0.0017838325584307313,0.0032058844808489084,-0.0020524878054857254,-0.0030026899185031652,-0.0022159211803227663,0.0008578366250731051,0.0014022629475221038,0.0022862141486257315,0.002153318142518401,0.0001393195998389274,0.0024874836672097445,0.00021409738110378385,-7.559813093394041e-05,0.0005055972142145038,-0.0020687885116785765,-0.00326108792796731,0.0026317082811146975,0.0005959714762866497,-0.0005193324177525938,-0.0036094377283006907,0.0008023122791200876,-0.001085290452465415,-0.0010985237313434482,0.0022578875068575144,0.0014181131264194846,0.0032914481125772,-0.0021766580175608397,-0.0013278626138344407,0.0009016257827170193,0.0014814685564488173,-0.003491544397547841,0.002409060951322317,0.0001590726024005562,0.0004588801821228117,0.002393105998635292,-0.0001805253268685192,-0.0015217128675431013,0.001687043928541243,-0.0003417948028072715,-0.00021169704268686473,-0.0034763673320412636,-0.0015944017795845866,8.99301958270371e-05,-0.0028934443835169077,-0.0004676247772295028,0.0005021659308113158,0.003433833597227931,0.001832145731896162,0.003632384119555354,0.00027660882915370166,-0.0017852806486189365,-0.0018055277178063989,-0.0025670265313237906,0.003359891241416335,-0.0007426958181895316,0.002921975450590253,-0.0017573288641870022,-0.0033797388896346092,-0.0020356057211756706,0.0024140889290720224,-0.001604736433364451,0.0004325789923314005,-0.0018394223880022764,-0.002728094579651952,0.0030640780460089445,-0.0015733417822048068,0.0027288002893328667,-0.002285740338265896,0.00043483279296196997,0.002780904294922948,-0.002705623162910342,0.0004129774169996381,0.000344603176927194,-0.0029472126625478268,-0.0011947997845709324,0.002601371379569173,-0.0003479291626717895,-0.0030063616577535868,-0.00022958269983064383,-0.0005818858626298606,-0.0027635260485112667,-0.002803025534376502,0.0027005020529031754,0.00047448178520426154,0.0030903711449354887,-0.0022315767128020525,0.003173578530550003,-0.002462624805048108,0.00019641968538053334,0.00024268309061881155,-0.0001662705180933699,0.00030196065199561417,-0.0028942765202373266,0.0016129201976582408,0.0008153693052008748,-0.0005381099181249738,0.0006430966313928366,0.0028494526632130146,0.0003412179939914495,0.0006660084472969174,-0.002255084225907922,-0.0033784338738769293,0.001781999133527279,-0.0019344461616128683,0.001647232798859477,0.001348569872789085,-0.0026737991720438004,0.0033803752157837152,0.002757583511993289,-0.0004285148170311004,0.002377027878537774,0.003021800424903631,0.002768865553662181,0.002248399192467332,0.0021250208374112844,-0.0029906099662184715,0.0016530348220840096,-0.0018585787620395422,-0.002999002579599619,-0.0024189986288547516,0.0034959428012371063,0.0010570980375632644,-0.003284910460934043,0.0008040617103688419,0.001683066482655704,0.0019471991108730435,-0.001255384529940784,-0.0004923875676468015,-0.0020915812347084284,-0.0013783460017293692,-0.001940462039783597,0.0004914790624752641,4.79944355902262e-05,7.03478799550794e-05,0.0006983062485232949,-0.0015418528346344829,0.0008220705203711987,-0.002911332296207547,0.0005102991126477718,-0.001195652293972671,-0.0004039497289340943,0.0024651556741446257,-0.0031483343336731195,-0.0010459988843649626,0.0007999339140951633,0.0012036904226988554,-0.00193204905372113,0.0016382053727284074,0.0011325465748086572,-0.00248983153142035,0.0010357147548347712,-0.0005344683304429054,-0.0036284688394516706,0.001252516289241612,0.00300051411613822,-0.00047670589992776513,-0.001474742777645588,-0.00364836398512125,-0.002065500942990184,0.000809137593023479,-0.001268313149921596,-0.0031450872775167227,-0.002292805351316929,-0.0022778285201638937,0.0027233667206019163,-0.0015767642762511969,0.0022529063280671835,-0.001585539197549224,9.693044557934627e-05,0.0015161175979301333,0.00262539554387331,-0.0023847687989473343,0.0003330817853566259,0.0022702834103256464,-0.002913928357884288,-0.002572868252173066,-0.0028165453113615513,0.0007804443594068289,0.0020833981689065695,-0.0005042984266765416,-0.0021598259918391705,0.0011940421536564827,-0.0032933263573795557,-0.003144817426800728,0.000751189305447042,-0.002691107103601098,0.0016715897945687175,-0.0007705887546762824,-0.0013772654347121716,-0.0030486122705042362,-0.00337335467338562,-0.0013748683268204331,-0.0029496997594833374,-0.0023150986526161432,0.0034769221674650908,-0.0008684932836331427,-0.00010240304982289672,-1.7366155589115806e-05,0.0013890438713133335,0.0004183286218903959,-0.0012613299768418074,2.2410349629353732e-05,0.003292366396635771,0.003153022611513734,0.0020562857389450073,-0.001963547896593809,-0.0016353247920051217,0.00135429622605443,0.0019217735389247537,0.00013151223538443446,0.0011890762252733111,0.0031094690784811974,-0.0022517796605825424,0.00030830135801807046,-0.0013838442973792553,-0.0031561932992190123,-0.0024817558005452156,-0.0005167589406482875,-0.003110142657533288,0.0002700011827982962,0.0029752932023257017,0.0019151828018948436,0.002666231943294406,-0.00033033356885425746,-0.0008021047106012702,-0.0007754479884169996,0.003573988564312458,-0.0007149510784074664,-0.00329450611025095,-0.003110349178314209,-0.003142494009807706,0.0009277720237150788,-0.0002856407663784921,0.002136067720130086,-0.0009212704026140273,0.003169189440086484,-0.0026306582149118185,0.0005857645301148295,0.002545582829043269,0.0011434814659878612,-0.0014286218211054802,-0.003347165649756789,-0.0021668977569788694,2.68602143478347e-05,-0.0035333444830030203,-0.0029274695552885532,0.002965182065963745,-0.0032467611599713564,0.002087941160425544,0.0026116601657122374,-0.0025152787566184998,0.0007085171528160572,0.0023386895190924406,0.003185636131092906,-0.0034986287355422974,0.0003153761208523065,0.0031052075792104006,0.0032175176311284304,0.0005563882878050208,-0.0028465709183365107,-0.001146398950368166,-0.00037241249810904264,-0.0008185651968233287,-0.0003997560706920922,0.0028253020718693733,-0.003568092128261924,0.00207829219289124,0.00046825059689581394,-0.002829130506142974,-0.0032473935279995203,0.0020485969725996256,-0.0008759262273088098,-0.0030310514848679304,0.0026305762585252523,-0.002129391534253955,0.0004029555420856923,0.0032753266859799623,0.0027045069728046656,0.0006647274130955338,0.00237230840139091,0.0007661994313821197,-0.0019117461051791906,-0.0033713693264871836,0.0018940066220238805,-0.0028899747412651777,-0.003197894897311926,-0.0030253282748162746,-0.00311925052665174,-0.0015994783025234938,-0.0020778037142008543,0.0009173096623271704,2.0003366444143467e-05,0.0005022423574700952,-0.001233524875715375,0.002869035117328167,-0.0027603141497820616,-0.001132424222305417,0.002510680817067623,-0.0027591828256845474,0.0032609461341053247,-0.0034496772568672895,0.0031858067959547043,0.0030500220600515604,-0.0028848168440163136,0.0012967443326488137,-0.001333335181698203,0.002306572860106826,0.0019677383825182915,-0.0031687698792666197,0.002525406889617443,0.0013372015673667192,-0.003174216952174902,0.0031951444689184427,0.001384883071295917,0.0023999777622520924,6.97013529133983e-05,0.0036329335998743773,-0.003138728206977248,-0.003301926888525486,-0.003253719536587596,0.0007278354023583233,0.0019231969490647316,0.0016514131566509604,0.00048386090202257037,-0.0016305643366649747,0.0027743782848119736,0.001902144169434905,0.0027136956341564655,0.0014338912442326546,-0.003354485845193267,-0.0007715823594480753,-0.0011301682097837329,0.00034528845571912825,0.0012240520445629954,0.0012172926217317581,0.0011600506259128451,-0.0019571357406675816,-0.00252960785292089,-0.0003290554159320891,-0.0005376538028940558,-3.8313712138915434e-05,0.002197945723310113,-0.001347539946436882,-0.0029575959779322147,-0.0026282065082341433,-0.0032628446351736784,0.002621097257360816,0.0019867217633873224,5.514559961738996e-05,0.0005307844839990139,-0.0006961735198274255,-0.0009839413687586784,0.001316655776463449,-0.003034028457477689,0.0023959162645041943,0.00023793260334059596,-0.0013554439647123218,0.0035700236912816763,-0.003394968342036009,0.0036448724567890167,0.0013192231999710202,-0.001727613271214068,0.002255192259326577,0.0009762952104210854,0.0016847302904352546,0.0026386426761746407,0.002509085228666663,0.003483027219772339,0.0035372355487197638,0.0019947693217545748,0.003622750286012888,0.0008460240787826478,0.0005654016276821494,0.001926456461660564,-0.0018275033216923475,-0.001117908046580851,-0.0015522229950875044,0.0008735539740882814,-0.0024948546197265387,-0.0018734245095402002,-0.0007927565020509064,-0.0013587339781224728,-0.0035301842726767063,-0.0028967908583581448,-0.0021658637560904026,0.0033625243231654167,-0.0026170078199356794,-0.0015561329200863838,0.0008499592659063637,0.0005308972322382033,-0.002840332454070449,-0.0020632529631257057,0.003078610636293888,0.0006421390571631491,0.0035867055412381887,0.0010462410282343626,-0.0029075981583446264,0.0029386496171355247,0.0026803077198565006,0.0017913287738338113,0.0009324499405920506,0.0016095584724098444,-0.0022301427088677883,0.002624891698360443,-0.002296714810654521,0.0026800003834068775,-0.0011571056675165892,-0.0010682917200028896,-0.0018896448891609907,-0.002603447064757347,0.0021348893642425537,-5.7980236306320876e-05,0.0013393909903243184,0.0019977709744125605,0.0020710891112685204,-0.0007044707308523357,-0.003244859166443348,-0.0005582091398537159,-0.0006742719560861588,-0.00013419317838270217,-0.002226587850600481,-0.0012425871100276709,-0.0034144537057727575,-0.0031733133364468813,-0.0005252032424323261,-0.002067544497549534,-0.001571531523950398,0.0007996680797077715,0.0007507018162868917,-0.0012057529529556632,-0.0025883640628308058,-3.7996285300323507e-06,-0.00011014359188266098,0.003567505395039916,-0.0011659373994916677,-0.0023893266916275024,-0.0009329128661192954,-0.00036099329008720815,0.0017897597281262279,0.0028208105359226465,0.000947394990362227,6.235934415599331e-05,-0.003122835885733366,-0.003018406219780445,0.0017365915700793266,0.0024961133021861315,0.00215524947270751,0.00019832668476738036,-0.0014363647205755115,0.0033032544888556004,-0.002775955479592085,-0.002564338967204094,-0.0014254965353757143,0.0016970079159364104,0.0002725402300711721,-0.0015534128760918975,-0.0015239663189277053,0.0010343748144805431,-0.0023979670368134975,-0.0014510113978758454,-0.002295512706041336,0.002881788183003664,0.0025598264764994383,-0.0030851399060338736,-0.0022193090990185738,0.0015405494486913085,-0.0014623809838667512,-0.002540087793022394,0.0002952642389573157,0.0005239243037067354,0.002510234946385026,-0.003289480460807681,0.003462144872173667,7.308441126951948e-05,-0.0029069469310343266,0.0007301913574337959,-0.002492267172783613,-0.0021818745881319046,0.002968754153698683,0.003287698607891798,-0.0011505607981234789,-0.0012496846029534936,-0.00016188166046049446,-0.0029304532799869776,0.0024470346979796886,-0.003473138203844428,-0.0034957537427544594,0.0034064282663166523,0.0011975336819887161,-0.0029947622679173946,-0.0016540192300453782,0.002082242863252759,-0.0016412156401202083,0.0021632916759699583,0.0016298094997182488,-0.00020686525385826826,-0.00013321427104528993,-0.0035881614312529564,0.0017884921981021762,-0.0012351986952126026,0.0014260854804888368,-0.00109357968904078,-0.0014756127493456006,-0.003323906334117055,-0.002891779411584139,0.0033754229079931974,-0.001719987252727151,0.0030856120865792036,-0.0020448581781238317,-0.0009125814540311694,0.0004633351636584848,0.0028009037487208843,0.0021562848705798388,0.0024829749017953873,0.0006730901077389717,-0.0029433458112180233,-0.0017592251533642411,-0.00020421954104676843,0.0007712906808592379,-0.001167787122540176,0.001587981591001153,-0.0006810062332078815,-0.003127574222162366,-0.0013544842367991805,-0.0017830365104600787,-0.0027721549849957228,0.0026668927166610956,-0.001588394632562995,-0.0018337544752284884,0.0006632801378145814,0.003221159102395177,0.002801713766530156,-0.0009177088504657149,-0.0025915068108588457,0.001475915894843638,-0.003073902102187276,-0.0016318773850798607,-0.001160964253358543,-0.001129704643972218,0.00042473929352127016,0.00238364702090621,0.0023219981230795383,0.0032104698475450277,0.0003181941283401102,-0.0005510252667590976,-0.003269714303314686,0.0012602281058207154,-0.0019216346554458141,8.430534944636747e-05,0.0027577171567827463,0.0033788711298257113,-0.002097831340506673,0.000873555603902787,0.0015988439554348588,0.00046812871005386114,-0.0010755483526736498,-0.003415448125451803,-0.0012952423421666026,-0.00040384611929766834,-0.00017906815628521144,-0.002027989597991109,-0.0017774663865566254,0.0008898533997125924,-0.00026904087280854583,-0.0034393740352243185,-0.0016912778373807669,0.0016627638833597302,-0.003599588992074132,-0.0007515717297792435,-0.00046019276487641037,-0.00011803981760749593,-0.001896612229757011,-0.00104818947147578,0.0015709444414824247,0.0006055744015611708,-0.0030329430010169744,-0.0020798398181796074,-0.0021241328213363886,-0.0007464351365342736,-0.002755558816716075,-0.001697446103207767,0.0003798802208621055,0.0010454774601384997,0.0025214357301592827,0.0015259097563102841,-0.00027606982621364295,-0.0014050647150725126,-0.002167981117963791,-0.003454419318586588,1.4547778846463189e-05,-0.000758304784540087,0.0029362724162638187,-0.002252422971650958,0.0007420862675644457,-0.0014052980113774538,0.00256068492308259,-0.0014869855949655175,0.002175114583224058,0.0020136460661888123,-0.0022390338126569986,0.0032860783394426107,0.001963930670171976,0.002306464361026883,-0.0015323645202443004,-0.0016218944219872355,0.0031386890914291143,-0.0006943449261598289,0.002454804489389062,0.001708568655885756,0.0005698855384252965,0.0024478170089423656,-0.0016597151989117265,0.0034660634119063616,-0.0034775303211063147,-0.002925295615568757,0.0019109048880636692,0.001918089808896184,-0.0004716952389571816,-0.0030400287359952927,0.0031804146710783243,9.457970008952543e-05,0.0030771344900131226,0.0008611809462308884,-0.0011803882662206888,0.0013235325459390879,-0.0029114570934325457,-0.0012678374769166112,0.00016468971443828195,-0.0012415022356435657,0.0018599469913169742,-0.001539394841529429,0.0008392880554310977,-0.001206542830914259,-4.0380524296779186e-05,0.001587040489539504,-0.0031839951407164335,-0.0027285651303827763,-0.0008109366171993315,-0.000928454683162272,-8.865573909133673e-05,0.001687559182755649,-0.002502770395949483,-0.0031108614057302475,-0.002524025272578001,0.0022444473579525948,-0.001652112347073853,-0.002908573020249605,-0.0023834644816815853,-0.0030650978442281485,0.0032298234291374683,-0.001729339943267405,0.0010403541382402182,0.0010395192075520754,-0.0027503271121531725,-0.0035394392907619476,-0.0020757566671818495,0.0018119948217645288,-0.003181965323165059,-0.0003625574754551053,-0.002617601305246353,-0.002254592487588525,-0.0007090948056429625,0.0012995367869734764,0.0008075229707174003,0.0022951632272452116,-0.0010726279579102993,0.003351938910782337,-0.0015427421312779188,0.0036584711633622646,-0.001161083928309381,-0.0015237955376505852,-0.0025150564033538103,0.0002562760200817138,0.0019532502628862858,-0.002753590466454625,-0.0033379073720425367,0.0017975048394873738,-2.5163333702948876e-05,-0.003448061179369688,0.0016606537392362952,0.0006234822212718427,0.0035100516397506,0.0006132171838544309,0.0016689476324245334,-0.0014770000707358122,0.0023916743230074644,0.0025081380736082792,-0.0013723820447921753,0.002285607624799013,-0.0007930842111818492,-0.0006818718393333256,-0.002965728985145688,0.0023385805543512106,0.0034945146180689335,-0.003378680907189846,0.0005006940336897969,0.003434122772887349,0.001405830029398203,0.002428313484415412,0.0004135992203373462,-0.0008874941850081086,0.001404068199917674,0.0020250212401151657,-0.0035991868935525417,-0.0010549330618232489,0.0008057845407165587,0.0004205929581075907,-0.00046385740279220045,0.0023393845185637474,-0.0007430927362293005,0.0007276270189322531,0.0005252946866676211,0.0003779785183724016,0.0019741093274205923,-0.0031626513227820396,-0.00027963367756456137,-0.0023108196910470724,-0.001959229353815317,-0.0012282816460356116,0.0003938033478334546,-0.002612694865092635,0.001132226549088955,-0.0012738410150632262,-0.0021850038319826126,-0.0012843490112572908,0.0029438133351504803,-0.0034819021821022034,0.0007984996191225946,0.00034826493356376886,-0.0026634519454091787,-0.0011122424621134996,0.001550184329971671,0.003662164555862546,-0.0011266531655564904,-0.0029755791183561087,0.0032144119031727314,0.0004241566639393568,-0.0013031245907768607,0.001486710854806006,0.0011698190355673432,-9.667098493082449e-05,0.0037747868336737156,0.0020634254906326532,0.0034991668071597815,0.0006130094989202917,0.0033791884779930115,0.002798250410705805,-0.003330862382426858,0.0019587567076087,0.0014364143135026097,-0.0008725979714654386,-0.00224196701310575,0.000696376315318048,0.0026469773147255182,-0.003580282209441066,-0.0027790898457169533,-0.0015342339174821973,0.0022688808385282755,0.00035495261545293033,0.0031068718526512384,0.0024890846107155085,-0.0018120048334822059,0.00242443336173892,-0.0016535510076209903,0.003173088189214468,0.0001226442400366068,-0.0016558942152187228,-0.0017935100477188826,-0.0010448209941387177,0.002194823930040002,-0.0018344958079978824,0.0033148908987641335,0.0013951016589999199,-0.00092540611512959,0.0012014415115118027,-0.0030388599261641502,0.0007388053927570581,0.003595193149521947,0.0029108175076544285,0.0018107231007888913,0.003460965119302273,-0.0033259994816035032,0.003308301791548729,0.0018100702436640859,-0.0014177204575389624,-0.0034296598751097918,0.002591820666566491,0.002720638643950224,-0.0029015461914241314,0.00040059545426629484,0.0033371152821928263,0.002042903332039714,0.0020447520073503256,0.0018533162074163556,5.1945302402600646e-05,0.003576850751414895,-0.0011583231389522552,-0.0003966001677326858,-0.001337937661446631,0.0031314189545810223,0.0006827118340879679,-0.003309465479105711,-0.0016258475370705128,0.0018174335127696395,-0.000766207929700613,0.001314668101258576,0.003497487399727106,0.0007416077423840761,0.002771106082946062,-0.002564800437539816,0.0005241640610620379,-0.0033559133298695087,-0.00325093325227499,-0.002526925876736641,0.00268657342530787,-0.002928483998402953,0.0023885967675596476,0.0037888127844780684,0.0009576613665558398,-0.0027275311294943094,0.0030430599581450224,-0.0005524055450223386,-0.0027517082635313272,0.0033960563596338034,-0.001267520827241242,-0.0017965849256142974,-0.002453774679452181,-0.0025586728006601334,0.0009899514261633158,-0.00020949225290678442,-0.0011388108832761645,0.0016892312560230494,0.002379267243668437,-0.0009810783667489886,-0.001562323421239853,0.0011818427592515945,-0.0016520376084372401,0.0003620347997639328,-0.0027769305743277073,0.001094318926334381,-0.0011460260720923543,0.0018437930848449469,0.0019186434801667929,0.002326097572222352,-0.0008322449866682291,0.0013447323581203818,0.0006307987496256828,0.0002442942059133202,0.0033030419144779444,0.001004283083602786,0.003919722978025675,-0.001327343168668449,-0.0032928953878581524,0.0028502303175628185,-0.003228374058380723,-0.0032904669642448425,-0.0018937732093036175,-0.0007389280362986028,0.0020367177203297615,-0.002291240030899644,0.0017323893262073398,-0.0011903480626642704,0.0003632510779425502,0.00028171364101581275,0.0016590406885370612,0.0033743800595402718,0.0037290947511792183,-0.00019440788310021162,0.0009638209594413638,-0.0015870871720835567,-0.0007252491777762771,9.10777089302428e-05,-0.00011869016452692449,-0.0009570225374773145,-0.002258896129205823,0.0005920055555179715,0.0008350539137609303,0.0008469551103189588,0.0013199223903939128,0.0010648310417309403,0.001099813962355256,0.0029646235052496195,0.0006290790624916553,0.002247885800898075,0.0012836260721087456,-0.0013751429505646229,-0.0018280179938301444,0.0033297892659902573,-0.0018240005010738969,-0.0009526294888928533,-0.0021812748163938522,-0.00041663157753646374,0.00019378621072974056,-0.0023180912248790264,0.0010416241129860282,0.0019621874671429396,0.000487583369249478,-0.001434708945453167,-0.0009043425670824945,0.003259379882365465,0.002719149924814701,0.001490098424255848,0.003462266642600298,0.0020749301183968782,-0.002936749951913953,-0.0025369711220264435,-0.0020065216813236475,-0.0015623733634129167,0.0023283972404897213,0.00027276689070276916,-0.0016469225520268083,-0.00181492418050766,-0.0013984630350023508,0.002511542523279786,0.0029047089628875256,0.003612617729231715,-0.0014805418904870749,-0.002902616746723652,0.0009724569390527904,-0.002845730632543564,0.0006206520483829081,0.0010035046143457294,0.0007100807852111757,0.003058941336348653,0.0028321398422122,-0.0027958296705037355,0.0038560680113732815,-0.0011430236045271158,0.002564983908087015,0.0035064290277659893,-0.0020462321117520332,0.003907572012394667,-0.00216342112980783,0.0018787772860378027,-0.002264817012473941,-0.0001864809455582872,-0.00029160830308683217,-0.0011161337606608868,-0.00019727619655895978,-0.0015454855747520924,0.003541471203789115,-0.0012067891657352448,-0.0014074388891458511,0.002323776250705123,-0.002255236729979515,0.0020853402093052864,0.001736993552185595,-0.0034935276489704847,-0.0014159366255626082,-0.002182403113692999,0.003350176615640521,-0.001836477080360055,-0.0009711057646200061,-0.0019044722430408,-0.0025192906614392996,0.002251606434583664,-0.001101721078157425,0.0018851276254281402,-0.0032060646917670965,-0.0008978024707175791,-0.002829927019774914,1.3855261386197526e-05,-0.0010921007487922907,0.0010648616589605808,0.0017669815570116043,0.001941607566550374,0.003019446274265647,0.002739910501986742,0.0035221553407609463,-0.0002328183618374169,0.0035985903814435005,0.0011146740289404988,0.0035265162587165833,-0.00029184555751271546,-0.0003345285658724606,0.000427478487836197,4.801394970854744e-05,3.246291453251615e-05,-0.0013369350926950574,0.003001582808792591,-0.002281850902363658,-0.001961176749318838,0.0033362903632223606,-0.0009681115625426173,0.0021591344848275185,0.00014476492651738226,-0.002429008251056075,0.0020005402620881796,-0.003107770811766386,-0.002407379448413849,-0.000521352281793952,-0.001971595920622349,-0.001024420722387731,0.0009556575096212327,0.002606512513011694,0.0027717920020222664,-0.0009673247113823891,0.0001350444945273921,-0.0028768228366971016,-0.0008388778660446405,0.0002359748032176867,0.0008586205076426268,-0.0024062597658485174,0.003755120560526848,0.0023691956885159016,-0.0010033819125965238,-0.0017414609901607037,0.0013142261886969209,0.0016976507613435388,-0.0017755998997017741,0.0007134694023989141,0.002646805951371789,0.00010155473864870146,0.0037941611371934414,-0.002171368570998311,0.0005481165135279298,-0.0008439143421128392,0.0024772505275905132,0.00176180899143219,0.0009300402016378939,-0.0005299742915667593,-0.00221742014400661,0.0022630055900663137,-0.00010740206926129758,-0.0022098468616604805,-0.002630348550155759,-0.003333467524498701,0.0035791085101664066,-0.0005984795861877501,-0.001390281948260963,0.003091616090387106,0.001567589701153338,-0.00030919426353648305,0.0012902631424367428,-0.0004165901045780629,-0.0019749579951167107,-0.0006422944134101272,0.001227417029440403,0.0013374367263168097,0.0006677481578662992,-0.00030361689277924597,-0.0014667481882497668,0.0034271501936018467,-0.0034056801814585924,0.002078454243019223,0.0032854999881237745,-0.0017754751024767756,-0.0026423048693686724,8.620470180176198e-05,-0.0013253295328468084,0.0018339116359129548,0.001804729225113988,-0.0012893850216642022,0.0007778967265039682,0.00013156245404388756,-0.00015945895574986935,-0.0016545199323445559,0.001437705708667636,-0.003265656065195799,-0.0011689288076013327,0.0024488160852342844,-0.00039256291347555816,0.0018205002415925264,0.0006015545222908258,-0.001472101779654622,-0.0012654438614845276,-0.0019259144319221377,-0.0009252458694390953,-0.0005189199000597,0.0008224524790421128,-0.000427491613663733,-0.0013062077341601253,0.003238456789404154,0.003230575006455183,0.0015079155564308167,-0.000442773278336972,-0.001886482466943562,-0.0009371435735374689,0.0025355664547532797,-2.800409492920153e-05,0.001758150290697813,-0.003189665265381336,0.0006178206531330943,-0.0019009195966646075,0.0009948170045390725,0.0006345435976982117,0.0038139650132507086,0.002068646252155304,-0.0030939888674765825,0.0017929654568433762,0.0033471176866441965,-0.001351257786154747,-0.0017841351218521595,-0.0018128124065697193,-5.689619138138369e-05,0.00045439391396939754,0.0016133090248331428,-0.0020848361309617758,0.001311348401941359,-0.00013282430882100016,-0.0024490347132086754,0.00025186699349433184,0.002282182453200221,0.003724554553627968,0.0006600868655368686,0.0016353981336578727,-0.0020496246870607138,0.0023575841914862394,0.0012178161414340138,-0.003213150193914771,0.0005098615074530244,-0.0030197836458683014,-0.0011623597238212824,-0.0031942827627062798,0.0003332400228828192,-0.002036001533269882,-0.001373634091578424,0.0034013420809060335,-0.001457647536881268,0.003623243188485503,-0.0032709497027099133,0.0025342090521007776,-0.000329878821503371,0.0004461535136215389,-0.002244764007627964,0.0018251495203003287,-0.0004555054765660316,-0.0021083380561321974,-0.0007478284533135593,0.002330826362594962,-0.003147569252178073,0.0027963181491941214,0.002379437442868948,-0.0025860650930553675,-0.003316326765343547,0.0011160955764353275,-0.0006381460698321462,0.0032357568852603436,-0.000857374572660774,-0.003046276280656457,0.001953033497557044,0.0010099993087351322,0.0019175780471414328,-0.0014240017626434565,-0.0013693050714209676,0.0003101300972048193,-0.0032853404991328716,-0.0010670756455510855,-0.0018423374276608229,-0.0018805599538609385,0.00011654965783236548,0.0036353047471493483,-0.0030575785785913467,-0.0015233152080327272,0.0025469698011875153,0.0031675074715167284,0.00037431789678521454,0.0011991915525868535,-0.0014366833493113518,-0.0006902182940393686,-0.0013775230618193746,-0.0006733376067131758,0.0037810078356415033,0.0006151518318802118,0.0030806197319179773,-0.002690979978069663,0.002445726888254285,0.00311066210269928,-0.0016218869714066386,0.0003530590038280934,0.001148513751104474,-0.0025630921591073275,-0.0017500562826171517,0.0036898446269333363,0.0003114553983323276,0.0007206366863101721,-0.001829448970966041,0.002960910089313984,0.0013401155592873693,-0.0022456860169768333,0.0036719092167913914,0.0007461376953870058,0.0021180096082389355,0.0032359277829527855,-0.0020303046330809593,0.002410683548077941,-0.003541810205206275,0.0029365760274231434,-0.0015682480297982693,-0.001155697274953127,-0.0023610463831573725,0.00028696004301309586,0.000705204380210489,0.0027732737362384796,0.0010126646375283599,-0.0018842431018128991,0.002839901717379689,0.003570142202079296,0.00117341463919729,-0.0022105486132204533,-0.0027466414030641317,0.0027913739904761314,0.0014755678130313754,0.002073682378977537,0.0009450630750507116,0.0005012521869502962,0.0010255350498482585,0.002148163504898548,0.0010942388325929642,-0.0007788778748363256,0.002603871049359441,-0.0015332212205976248,0.00017176521942019463,-0.0018824187573045492,-0.0016095523023977876,-0.0013697908725589514,0.0007022593053989112,-0.0008817323250696063,-0.0003910023660864681,0.001036797184497118,0.003309626830741763,-0.00017039114027284086,-0.002025638474151492,0.0009099357994273305,-0.001152939978055656,-0.0015727152349427342,0.0029850094579160213,0.002545304596424103,-0.0024460989516228437,-0.00325418240390718,-0.002465631114318967,-4.384271596791223e-05,-0.0031786710023880005,0.003695862600579858,-0.0019047820242121816,0.0020905667915940285,-0.002548408694565296,0.0024961086455732584,-0.0011311613488942385,0.0025491027627140284,-0.0002888617163989693,0.0034626249689608812,-0.0013069434789940715,-0.003268944099545479,0.0010891807032749057,-0.0034459445159882307,0.0026820360217243433,-5.964368938293774e-06,-0.0017135626403614879,-0.0015376766677945852,0.001746028894558549,0.003464500419795513,0.003558956552296877,-0.0025956120807677507,0.0009852388175204396,-0.0032923961989581585,0.00021846438175998628,0.0014773501316085458,-0.002180864103138447,-0.0030484290327876806,0.0029345438815653324,-0.0016037417808547616,-0.0009164091316051781,0.0005956628592684865,-0.0026132995262742043,0.0005184087785892189,0.0025030660908669233,-0.0026288344524800777,-0.0003975651052314788,-0.003116675652563572,-0.002692009322345257,-0.002226056531071663,-0.0029806720558553934,-0.002190537750720978,0.001752449432387948,0.0012992119882255793,-0.0031916701700538397,-0.0017055723583325744,0.0017458468209952116,-0.003187958151102066,0.003630534978583455,0.0033344950061291456,0.0028906851075589657,0.0004420652403496206,0.003833757946267724,-0.0015258785570040345,0.002178011229261756,-6.941596802789718e-05,0.001514382311142981,0.002778208814561367,-0.0007637412054464221,-0.0003529565583448857,0.0036915873643010855,0.003481062827631831,-1.4044498129806016e-05,0.0005925298319198191,-0.0026553459465503693,-0.001408628304488957,-0.0032966621220111847,0.002506538759917021,-0.0016878672176972032,0.003816828364506364,0.0016925608506426215,0.00024161759938579053,0.002904285676777363,-0.0018804138526320457,0.0028219290543347597,0.0017360462807118893,0.003503840183839202,-0.0030115048866719007,0.0008358060149475932,-0.0015908555360510945,0.0024704134557396173,-0.0016198112862184644,-0.0016231255140155554,0.0017342407954856753,0.002560113789513707,0.0019548574928194284,-0.001964679453521967,0.00027917366242036223,0.0003458606079220772,0.00043871509842574596,-0.00011829700815724209,0.0006903577595949173,0.0014908589655533433,0.00014572702639270574,-0.001031094347126782,-0.0020590219646692276,-0.0010089923162013292,-0.0033528825733810663,-0.0004317444108892232,0.0012470072833821177,-0.001038555521517992,-0.003351041814312339,0.0010545981349423528,0.0027991067618131638,-0.003422406269237399,0.0028935945592820644,0.002580938395112753,-0.0024228536058217287,-0.0035551509354263544,-0.0027530307415872812,0.0037388382479548454,0.0033735029865056276,-0.001650348654948175,0.0004740265430882573,0.0029203719459474087,0.0015680602518841624,0.002163364551961422,0.0030669262632727623,-0.00029167713364586234,0.0038511010352522135,-0.0011758379405364394,0.002579442923888564,-0.002179571660235524,0.003181532956659794,0.0018430773634463549,-0.00043564586667343974,0.002640077145770192,0.0026760578621178865,0.002282551256939769,0.0015926782507449389,0.0009324285783804953,0.003190755844116211,-0.0020191327203065157,-0.000982895027846098,-0.0035819888580590487,-0.0016628772718831897,0.0010478071635589004,-0.0017262173350900412,-0.002910417504608631,0.0020028692670166492,-0.0013321602018550038,0.0008411708986386657,-0.0013399088056758046,0.001391496160067618,-0.0017363345250487328,0.0029784191865473986,0.00117154058534652,0.0003474070399533957,-0.002878941595554352,-0.003538538934662938,-0.003541042096912861,-0.0004955418989993632,-0.003626743331551552,0.0032069741282612085,-0.0031506912782788277,0.002192610874772072,4.615651778294705e-05,-0.0011540917912498116,-0.0020370464771986008,-0.000851188029628247,0.00045823081745766103,0.001923633273690939,-0.0030665374360978603,0.0017442948883399367,-0.0023726667277514935,-6.025208858773112e-05,-0.0008546868921257555,0.0003790903137996793,-0.0006982518243603408,-0.0026211172807961702,-0.0035730418749153614,-0.0009541790350340307,-0.0009220574283972383,-0.00264032487757504,0.003546701278537512,0.0019740466959774494,0.002632955089211464,0.003680798690766096,-0.001324221258983016,0.002690090797841549,0.003297945484519005,0.0029637773986905813,-0.00223748991265893,7.699354318901896e-05,0.0003953886334784329,0.0035961861722171307,-0.001152678276412189,0.00014980068954173476,0.002369170542806387,0.0020587139297276735,-0.00266323727555573,0.0025135965552181005,-0.002218537963926792,-0.0005284000071696937,-0.0024811464827507734,0.0027653540018945932,-0.002574163256213069,0.0025637943763285875,-0.002691979520022869,-0.001508090179413557,-0.002867047907784581,-0.002158794552087784,-0.0033313583116978407,-0.0013398901792243123,-0.0021865800954401493,-0.0027370143216103315,-0.0010007400996983051,-0.0018612149870023131,0.002696005394682288,-0.0030407533049583435,0.0009191062417812645,-0.0019619509112089872,-0.0007539722719229758,0.003360181814059615,0.00034138039336539805,0.0003780258703045547,-0.0003567453532014042,0.0014335173182189465,0.0023584747686982155,-0.0032894788309931755,0.0010820192983374,0.0035750132519751787,-0.0013162762625142932,0.002369324443861842,0.0035405587404966354,-0.001097002997994423,-0.0029016875196248293,0.0032977249938994646,0.0022664396092295647,-0.0007111203158274293,-0.0016890047118067741,-0.0015493907267227769,-0.002940530190244317,-0.0017750994302332401,-0.0012887922348454595,-0.0003556318406481296,0.0003675375191960484,-0.0009517255239188671,-0.002125382423400879,-0.002724570222198963,0.002038204111158848,-0.0030105586629360914,-0.0017386472318321466,-0.002764518139883876,0.0035995093639940023,0.0014971416676416993,-0.0022340735886245966,0.0013052946887910366,-0.002305451547726989,0.002458169823512435,-0.0020968199241906404,-0.002506586257368326,0.0037578437477350235,-0.000965425802860409,-0.001044407137669623,-0.0004628688038792461,0.0005577786359935999,0.002655794844031334,0.003704313188791275,-0.0012490460649132729,0.0006453112582676113,0.00249313423410058,-0.0029069650918245316,0.0018301289528608322,9.322815458290279e-06,-0.0022501128260046244,0.003340306458994746,0.0012538628652691841,0.0007735088584013283,-9.015943942358717e-05,-0.001290733925998211,-0.0031824717298150063,0.0008379591163247824,-0.001037902315147221,-0.002388470573350787,0.002428040374070406,0.0007800526218488812,0.0002584101166576147,0.002007498871535063,-0.0029750980902463198,0.0010793845867738128,0.0033200520556420088,-0.002619910752400756,-0.0007058485643938184,-0.0006516951834782958,0.0010222424753010273,-0.0021186741068959236,-0.0030583825428038836,-0.002425648970529437,0.0033080161083489656,-0.0030227138195186853,-0.0023174004163593054,0.0004820986941922456,0.001098533277399838,-0.0018939985893666744,0.000302204949548468,0.003468880895525217,0.001499379170127213,-0.0001297443377552554,0.0017127577448263764,0.0018813261995092034,0.0033060989808291197,0.00012373231584206223,-0.0026354058645665646,-0.003385813208296895,-0.0015103681944310665,-0.0033996175043284893,-0.000977205578237772,-0.0006323429988697171,0.0002228661032859236,-0.0032470012083649635,0.003193530021235347,0.002357681281864643,0.0001256681134691462,-0.0035773897543549538,-0.002612355863675475,0.002118101343512535,-0.0018827059539034963,0.0009939735755324364,-0.0003185129608027637,-0.001534181647002697,0.00306063424795866,0.0029383753426373005,0.002135904971510172,-0.0027927944902330637,-0.0031192717142403126,0.00032557157101109624,0.0029843070078641176,-8.160062861861661e-05,-0.0020445494446903467,0.0010591704631224275,0.002135045360773802,-0.0005353669985197484,0.0010038105538114905,-0.0024655007291585207,0.0029362074565142393,0.002734387293457985,0.0006807150784879923,-0.0029772245325148106,0.0004063572851009667,0.0010786536149680614,-0.0010476846946403384,-0.00033400050597265363,0.0020548305474221706,-0.00345519557595253,-0.0016375824343413115,0.003392041428014636,-0.0007216932135634124,0.0015903838211670518,-0.0011941510019823909,0.002501128241419792,0.0021880054846405983,0.0003014284884557128,0.00040644966065883636,0.0028419657610356808,-0.0032016232144087553,-0.0008484498248435557,3.7601759686367586e-05,0.002181763295084238,-0.0005838384968228638,-0.0008539012633264065,0.002932463539764285,0.002921017585322261,-0.0016518398188054562,0.0022432212717831135,0.0012574498541653156,-0.0035273400135338306,-0.002491162158548832,-0.00028917333111166954,0.0013226720038801432,0.0036491318605840206,0.0008828028803691268,-0.0019613050390034914,9.312133624916896e-05,-0.0014139062259346247,0.0027516023255884647,-0.002992394147440791,0.0006926787318661809,-0.0020659035071730614,0.0031855369452387094,-0.0001237135729752481,-0.0032414253801107407,-0.0016611811006441712,0.0027135442942380905,5.7767632824834436e-05,0.0008384444518014789,0.0006378127727657557,-0.0020543448626995087,-0.000172341606230475,-0.00031390649382956326,0.001481581130065024,0.001113603706471622,-0.0030563666950911283,-0.0013925792882218957,-0.00218732631765306,-4.6753953938605264e-05,0.0035638927947729826,0.0013703821459785104,0.001645596930757165,0.002422135090455413,0.0003259505901951343,0.0018708615098148584,-0.001744372770190239,0.0032377971801906824,0.003277742536738515,0.0014980429550632834,0.0034674680791795254,0.0019523808732628822,0.003397925989702344,-0.0031826351769268513,-0.002189371734857559,-0.0001788064109859988,-0.0004901367938145995,0.0011271387338638306,0.0015795298386365175,-0.0030650191474705935,-0.0030259783379733562,0.0028201467357575893,-8.310802513733506e-05,-0.002679756609722972,0.0019507347606122494,-0.0027742660604417324,0.0027866484597325325,0.0008640019805170596,0.0015955832786858082,0.0015993230044841766,-0.0035532547626644373,-0.0030516169499605894,-1.269428958039498e-05,0.002624347573146224,0.0029086836148053408,-0.0026875126641243696,-0.00035784378997050226,5.749097908847034e-05,0.0033831384498625994,0.0016757266130298376,1.1639224794635084e-05,-0.0011594584211707115,0.00040188789716921747,0.0007887143292464316,0.0011022831313312054,-0.001991828205063939,0.0021796245127916336,0.0035070679150521755,-0.0018802090780809522,0.0012054725084453821,0.0006169527769088745,0.0029049688018858433,-0.000811110541690141,-0.0013906817184761167,0.003125084564089775,-0.0032554694917052984,0.0005112915532663465,0.003314405679702759,-0.0035104663111269474,0.0023848465643823147,0.0021654278971254826,-0.0031176493503153324,0.0020237218122929335,-0.0005437034415081143,0.00130838539917022,-0.002370726317167282,-0.0025905503425747156,0.00036283142981119454,-0.0025519398041069508,0.002929730573669076,0.0024060169234871864,0.0006775622605346143,0.0009787941817194223,0.0016307980986312032,-0.0009727059514261782,-0.0011179979192093015,0.00026470088050700724,0.0002759434864856303,0.0036021913401782513,0.0013937830226495862,0.00216240668669343,0.0021770414896309376,-0.002337972167879343,0.0019140936201438308,0.0022209801245480776,-0.0028274678625166416,0.00243795826099813,0.001982578542083502,-0.00016392528777942061,0.0006214762688614428,-0.002488025464117527,0.0015462475130334496,-0.0006746716680936515,0.0006525820353999734,0.0008662938489578664,-5.2163650252623484e-05,-0.0028868357185274363,-0.00028808764182031155,0.0010023494251072407,0.00295619061216712,0.0030607241205871105,-0.0019317923579365015,-0.001213552663102746,0.0018195485463365912,-0.0023095090873539448,0.0036346199922263622,-0.0004636165394913405,-0.0001629033067729324,0.00044416950549930334,-0.003575271461158991,-0.0018411088967695832,-0.0007283276063390076,0.002503031399101019,-0.0010034359293058515,-0.002395128831267357,0.0027533655520528555,-0.0006613889127038419,-0.0011594832176342607,0.0014200349105522037,0.00011999712296528742,0.001533480710349977,0.0008669376838952303,-0.0028076227754354477,0.003356367349624634,0.0014750109985470772,0.00255774287506938,-0.0006964613567106426,-0.001619550515897572,0.00106073881033808,-0.0022409632802009583,-0.001156264217570424,0.0030284945387393236,0.003512734780088067,-0.00016786229389254004,0.0014970378251746297,0.0024430027697235346,0.002557344501838088,0.0018908921629190445,-0.0018407490570098162,0.0011610594810917974,0.00020934136409778148,0.0032299256417900324,-0.003579966723918915,-0.00126310542691499,0.0014689232921227813,-0.0003479164734017104,-0.0014493154594674706,-0.0018858287949115038,-0.0023860863875597715,-0.000771411054302007,-0.0018753714393824339,0.0030507894698530436,0.0011529665207490325,-0.002670148154720664,0.0016652661142870784,-0.003252062015235424,-0.00010043202200904489,0.0015869460767135024,0.002665058709681034,0.00012889961362816393,0.0012293668696656823,0.00039747118717059493,0.002880902262404561,-0.002409202279523015,-0.002849184675142169,-0.0028333559166640043,-9.225858957506716e-05,-8.272786362795159e-05,-0.0009752747719176114,0.0018930091755464673,-0.0036513630766421556,-0.0025365371257066727,0.0017684918129816651,0.0012313713086768985,-0.00036895181983709335,-0.0012155312579125166,0.0014864734839648008,0.0011049178428947926,0.0014171733055263758,0.0012969388626515865,0.0010151274036616087,-0.0019856058061122894,0.0030522558372467756,-0.003012662986293435,-0.00027315434999763966,-0.0017359823687002063,-0.0022825992200523615,0.003580341814085841,-0.0021749294828623533,0.0017221581656485796,0.001205516280606389,-0.0009901029989123344,0.002543671987950802,-0.00231647165492177,0.003108937293291092,0.0014508243184536695,-0.00018326667486689985,-0.001712808501906693,-0.001672100042924285,-0.0013530768919736147,-0.0001057161352946423,0.002212516264989972,-0.002559954533353448,-0.0024168204981833696,-0.002577429637312889,-0.0006069408846087754,0.0011735411826521158,-0.0021361776161938906,0.0025294164661318064,0.003172807628288865,-0.0019498472101986408,0.000629369867965579,0.0014304692158475518,-0.0009303929982706904,0.0005620470037683845,0.003175712889060378,-0.002745953621342778,0.0018847831524908543,-0.0009379539988003671,0.0031574831809848547,0.0021575011778622866,-0.0022252469789236784,0.0034719782415777445,0.0029282590840011835,-0.0031239043455570936,0.00016881752526387572,0.0004775078850798309,0.0007757797138765454,0.0013755642576143146,0.0020260235760360956,0.0009980106260627508,0.0008349583949893713,-0.0005866003921255469,0.0012483749305829406,-0.000907536072190851,0.00020191674411762506,-0.0028164105024188757,0.0024757685605436563,0.0012226254912093282,0.000749242608435452,-0.0023324235808104277,0.0021926856134086847,-0.0021913531236350536,0.0013454611180350184,-0.002148119732737541,-0.0036455716472119093,-0.0031686476431787014,0.001718724612146616,0.0014834834728389978,0.0015332521870732307,-0.0018963842885568738,0.003498569130897522,-0.0007949944701977074,-0.0026583601720631123,-0.0010513935703784227,0.0030362913385033607,-0.0007793300319463015,0.0002926632878370583,-0.003159014508128166,-0.0024819234386086464,-0.0004127961292397231,0.0025341641157865524,-0.0021748850122094154,-0.00180191604886204,0.0031636618077754974,0.0033395937643945217,-0.003488812828436494,-0.0017777611501514912,0.000625228974968195,-0.0013389382511377335,0.0004153657937422395,-0.0024218184407800436,-0.0027531208470463753,-0.00043006683699786663,-0.002931027440354228,0.0015774049097672105,0.0003929118684027344,0.0014264608034864068,-0.0033165663480758667,0.0004557336797006428,0.0028553807642310858,0.0015668233390897512,-0.0028269407339394093,0.003171137534081936,0.0033262770157307386,0.00018989123054780066,-0.00042126301559619606,-0.002308927709236741,0.0005560480640269816,0.0027180861216038465,7.231772178784013e-05,-0.0017122725257650018,-0.0005561311263591051,0.0006713713519275188,0.0002338204940315336,-0.0009767801966518164,-0.002376646501943469,0.0030156623106449842,-2.788305573631078e-05,-0.002748718950897455,0.002932097529992461,0.002894776873290539,0.0022279848344624043,0.002176449168473482,-0.0006997083546593785,-0.0005466687143780291,0.0031732048373669386,-0.0023677246645092964,9.417902765562758e-05,-0.0008097831741906703,-0.0006853181403130293,-0.0021940460428595543,0.002275376347824931,0.0020992096979171038,-0.001336582936346531,0.0016322494484484196,0.0028441830072551966,-0.00161322474014014,0.0020022776443511248,0.003150476375594735,-0.0024986881762742996,0.0026957427617162466,0.002847899217158556,-0.00010510859283385798,-0.00047591267502866685,0.002932587405666709,-1.3279810445965268e-05,-0.0011009997688233852,0.0009872422087937593,-0.0016189872985705733,-0.001122745918110013,-0.0015826354501768947,0.0021818927489221096,0.002392409835010767,0.003004826372489333,-0.000539411383215338,-0.0017796569736674428,0.0009639595518819988,8.115808304864913e-05,6.618621409870684e-05,-0.0019653693307191133,0.0013438313035294414,0.0009316055802628398,0.00028532996657304466,-0.0027676813770085573,0.0014412516029551625,-0.001225544256158173,0.001606233767233789,-0.0020744099747389555,-0.0007068890845403075,-0.0008840489899739623,-0.003718073247000575,-0.001357917208224535,0.0032829740084707737,0.003082389710471034,0.00010499775089556351,-0.00020424705871846527,-0.0032615037634968758,0.0008539581904187799,-0.0014255496207624674,0.0005588324856944382,-0.0016761986771598458,-5.122946822666563e-05,-0.0034305339213460684,-0.0009138923487626016,0.0006181588396430016,-0.0024419401306658983,0.0016675055958330631,4.304575486457907e-05,-0.0015214027371257544,-0.0002523199073038995,0.0010633880738168955,-0.0012760417303070426,-0.0029023371171206236,-0.001247071078978479,-0.0011588196502998471,-0.002235645428299904,-0.0029299284797161818,-0.0024064998142421246,-0.002327178604900837,-0.0017569754272699356,-0.000506064563523978,-0.0030300302896648645,-0.001856640330515802,-0.0005578874843195081,0.0020004180260002613,0.0022084179800003767,0.002198200672864914,-0.0006433715461753309,0.0004366524226497859,-0.0035650187637656927,-0.00023616554972250015,-0.0010914175072684884,0.001628741156309843,0.0027116211131215096,0.0016370201483368874,-0.00251225964166224,0.00028444809140637517,-0.001740604406222701,0.000626120250672102,0.0003049875085707754,3.1849378956394503e-06,-0.0011206252966076136,-0.002010020660236478,-0.0031935633160173893,-0.0018388424068689346,0.0027424406725913286,0.0019025193760171533,-0.0009098175214603543,-0.0012111143441870809,0.0030772420577704906,0.0007843176717869937,-0.0029591075144708157,0.0006021872395649552,0.0012070604134351015,0.001527738175354898,0.0014041492249816656,-0.003510585054755211,0.0021475134417414665,-0.002691600238904357,0.003249695524573326,0.0011265055509284139,0.0021826254669576883,0.0025923314969986677,0.0004009015392512083,-0.0011070648906752467,0.0026893571484833956,-0.0028904557693749666,0.0034449498634785414,0.0003634040185716003,-0.002607740228995681,0.0020232906099408865,-0.0013152608880773187,-0.0021112258546054363,0.0025672083720564842,-0.0003495609271340072,-0.0026759845204651356,-0.0007605907157994807,-0.0003730551979970187,0.0008354641031473875,-0.0026812886353582144,0.003305660793557763,-0.0006833804654888809,-0.0032544578425586224,0.0010052643483504653,0.0009299820521846414,-0.003305033314973116,-0.0023843080271035433,-0.0016957116313278675,5.569748395828356e-07,-0.0025294830556958914,-0.0020232689566910267,-0.0013249160256236792,-0.0025309070479124784,-0.0029137691017240286,0.0015234923921525478,0.0016743593150749803,-0.0008477018564008176,0.0010360701708123088,-0.0033583620097488165,0.0014754196163266897,0.0007234111544676125,-0.0020159867126494646,0.001873399829491973,0.001156528014689684,0.002182735363021493,-0.0009295609197579324,-0.0009958302835002542,0.0032037373166531324,0.0027246614918112755,0.003296822775155306,-0.00033206716761924326,0.0020815834868699312,0.0005631123203784227,0.0011938278330489993,0.0023066233843564987,0.0026421602815389633,-0.002360658021643758,0.0008639377192594111,-0.003127042204141617,0.0005296125309541821,-0.0002796292246785015,-0.0036455681547522545,-0.0012676864862442017,-0.002232812810689211,0.003503441344946623,0.000839626241941005,-0.003547346917912364,-0.0008002304821275175,-0.0010362663306295872,-0.003057473571971059,0.0017777569591999054,0.0008206405327655375,-0.001340784365311265,0.0012592379935085773,-0.0006763057317584753,0.0031670001335442066,-0.0025372409727424383,-0.0032163262367248535,-0.002915657125413418,-0.0035577286034822464,0.0007158208754844964,0.0031675545033067465,0.0006201383657753468,-0.0009455715771764517,-0.0011337189935147762,-0.00018786857253871858,-0.00024375550856348127,-0.00239787669852376,-0.0005225202767178416,0.0024644280783832073,0.003377683460712433,0.0022087162360548973,0.0019986885599792004,-0.00039583470788784325,0.002154263434931636,5.4039501264924183e-05,-0.0005153562524355948,0.001688927412033081,-0.0034352790098637342,-0.0029400638304650784,0.0032857239712029696,-0.002160059055313468,-1.9817873180727474e-05,0.0013977246126160026,0.0031100402120500803,-0.0007723663002252579,-0.0021019421983510256,-0.002781553426757455,0.0010050871642306447,-0.002162445802241564,-0.0036524604074656963,-0.0038021798245608807,-0.001173927797935903,0.002308922354131937,-0.0012375417863950133,0.00039507928886450827,0.0005629776860587299,0.0014714193530380726,-0.0008760953787714243,0.0013349252985790372,-0.00015337411605287343,-0.002162036020308733,-0.0010447425302118063,0.0026627120096236467,0.0025790627114474773,-0.0021511148661375046,-0.0014418361242860556,-0.0023907660506665707,0.0021126915235072374,-0.00039544355240650475,0.0020775089506059885,-0.0007432712009176612,0.0019966168329119682,0.002482079202309251,-0.00035551897599361837,-0.0025392642710357904,0.0026772620622068644,0.0019480899209156632,-0.0016436666483059525,0.0022624891716986895,0.0007949094288051128,-0.0034786530304700136,-0.0027498153503984213,0.00039823330007493496,-0.003263012506067753,0.0015135008143261075,0.0011679766466841102,0.0012501077726483345,0.0029473097529262304,-0.0018678049091249704,0.002489853650331497,-0.0007973263855092227,0.0033072372898459435,0.0012217452749609947,8.634864934720099e-05,-0.0029312651604413986,0.002279113046824932,-0.0014842934906482697,-0.0009538264130242169,-0.0006488354993052781,0.0012318597873672843,-0.0019474439322948456,-0.003745304886251688,-0.002685275860130787,-0.002601984655484557,-0.0010624673450365663,-0.0003198480699211359,-0.0013721715658903122,0.00021783601550851017,-0.002296852646395564,-0.0005195735138840973,0.0004114130570087582,0.002535157138481736,-0.002421896904706955,-0.00022006817744113505,0.002346272813156247,0.0002722485223785043,-0.0031636713538318872,-0.0034454409033060074,0.0015382866840809584,-0.0007179410895332694,0.002398782642558217,0.0004530441074166447,0.0019320094725117087,0.0016372306272387505,-4.290453580324538e-05,0.0011668521910905838,-0.003816993674263358,-0.002911532297730446,0.0022671306505799294,-0.0031533814035356045,0.0011949074687436223,-0.0022771151270717382,-0.0029433993622660637,-0.002133649308234453,0.0013724988093599677,-0.001552100176922977,8.783607336226851e-05,-0.001680677873082459,0.000611316179856658,0.0031102532520890236,-0.0034541788045316935,-0.0014217367861419916,0.0009749801247380674,0.0008523074793629348,-0.0003266872081439942,-0.0033253422006964684,-0.003714626422151923,-0.0009187576943077147,-0.0033633282873779535,0.0024443725124001503,-0.003358089830726385,0.0025515554007142782,0.002854258520528674,0.002393100643530488,-0.0012363140704110265,0.0013459669426083565,0.0012630046112462878,-0.002212055027484894,-0.0010605446295812726,0.0008844961994327605,-0.0013274000957608223,0.0005945019656792283,-0.004042694810777903,0.0025983923114836216,0.0021058362908661366,0.001015171641483903,-0.0023137619718909264,0.0020444635301828384,-0.00010815980931511149,0.002912838477641344,0.0010807840153574944,0.0009151287958957255,-0.0014822565717622638,0.00231030210852623,-0.0030751058366149664,0.0026693311519920826,-0.0007398364250548184,-0.0002843390975613147,-0.0026732103433459997,0.00047665307647548616,0.0018375890795141459,-0.0018076534615829587,0.0025499172043055296,-0.0023414669558405876,0.0025066332891583443,-0.0037572330329567194,0.0003156110760755837,-0.0021794100757688284,0.0005493842763826251,-7.217645907076076e-05,-0.0031945384107530117,-0.0008082302520051599,0.0026503480039536953,-0.0008817234775051475,-0.0035856079775840044,-0.0033714910969138145,0.002385094529017806,-0.0017534471116960049,0.0023215969558805227,-0.0037359006237238646,-0.0010198644595220685,0.0013655753573402762,0.003145974362269044,-0.002524084411561489,-0.0021439832635223866,0.0008495424990542233,-0.0033204753417521715,0.00030543169123120606,-0.00016950957069639117,-0.0003101481997873634,-0.0036417755763977766,-0.0015415205853059888,0.0017562075518071651,-0.0031199390068650246,-0.002368933754041791,0.0030663185752928257,-6.969220703467727e-05,0.000799052941147238,-0.001572960871271789,0.0029264807235449553,0.00176440819632262,-0.002153984736651182,0.001198742538690567,0.0024155941791832447,-0.0006800417322665453,0.00018032256048172712,0.0003774497890844941,0.0017591967480257154,-0.0004582198744174093,0.0012541007017716765,-2.3985343432286754e-05,-0.0015378956450149417,0.0019036338198930025,0.0012350579490885139,-0.0030522632878273726,-0.002161867916584015,-0.0013857748126611114,0.0025805258192121983,0.001123934518545866,0.0017204915639013052,0.0008626378839835525,-0.0007999451481737196,-0.0017795204184949398,-0.0035149548202753067,-0.0009331288165412843,-0.0025538515765219927,-0.002006172901019454,-0.0030713186133652925,0.0019277979154139757,0.002011847449466586,-0.003228898160159588,-0.0004310401563998312,0.002312114927917719,0.0029469099827110767,-0.00319114001467824,-0.0030715325847268105,-6.21276194578968e-05,-0.0004134962218813598,-0.0026245845947414637,-0.0032673690002411604,-0.0002330726565560326,-0.003680889494717121,0.0022830467205494642,-0.0028452796395868063,0.0028023063205182552,-0.0029029520228505135,-0.0036355648189783096,-0.0029943836852908134,0.0015909780049696565,0.0004874487058259547,-0.0013729231432080269,-0.0026636961847543716,0.00261004944331944,-0.002738497918471694,-4.8827059799805284e-05,0.0017873442266136408,-0.0020134071819484234,0.0023372683208435774,0.0012100181775167584,0.0021774298511445522,0.0030968899372965097,0.0007342559983953834,-0.002396050840616226,0.002265979303047061,0.0025250117760151625,0.0007527616107836366,0.002517934888601303,-0.0026545822620391846,0.0019523006631061435,-0.0011256018187850714,-0.001699279062449932,0.002129344968125224,0.0021150331012904644,0.002015621168538928,0.0007951228762976825,-0.0013173454208299518,-0.0019058238249272108,-0.001100273453630507,-0.0014178308192640543,-0.0024266615509986877,-0.0036438885144889355,-0.00011466305295471102,-0.001294880174100399,0.0008919996907934546,-0.003128047799691558,-0.0037602034863084555,0.0023223264142870903,0.0019045444205403328,0.0015212185680866241,0.002659351099282503,-0.0029255463741719723,-0.003829619847238064,0.0033441996201872826,-0.0036826329305768013,-0.003887621685862541,0.0006122131599113345,0.0027877367101609707,0.001161670428700745,0.0018101530149579048,0.0018319549271836877,0.0006897005368955433,0.00028046563966199756,0.000964470615144819,-0.0034681546967476606,0.0028361286967992783,-0.0012865443713963032,-0.0010114910546690226,-0.0033477244433015585,-0.0006360502447932959,-0.0019788083154708147,-0.0040036458522081375,-0.003832129994407296,0.00020932612824253738,0.0028763250447809696,0.0009101651958189905,0.00018191064009442925,-0.0005896410439163446,0.0014654670376330614,-0.0014945088187232614,0.0024945226032286882,0.0013725158059969544,0.0006748379673808813,0.002818314591422677,-0.000828475458547473,-0.0004254751547705382,-0.002623128006234765,-0.0014565649908035994,-0.003691410878673196,-0.0006562749622389674,-0.0013622993137687445,-0.0004415542061906308,-0.00016278581460937858,0.001705387607216835,0.003028776729479432,-0.001363926101475954,-0.0007247784524224699,0.000524136412423104,0.0005755896563641727,-0.0022597068455070257,-0.0003232625313103199,-0.003214033553376794,0.0021464023739099503,0.0008572354563511908,0.00023056160716805607,-0.003448217175900936,0.0013774873223155737,0.00022623872791882604,0.00047289207577705383,0.0011288628447800875,-0.002739631338045001,-0.0010094235185533762,-0.0008298116154037416,0.0014173041563481092,-0.00039047194877639413,-0.001965882256627083,-0.002603550674393773,-0.0029433907475322485,-0.0018198840552940965,-0.00020210669026710093,0.0034368212800472975,0.0026355180889368057,-0.00158783292863518,0.00010783911420730874,-0.0008934542420320213,-0.00043096221634186804,-0.0017588858027011156,-0.00019700769917108119,0.0018596546724438667,-0.002318793907761574,-0.0001552852481836453,0.0004096878692507744,0.00017428523278795183,0.0027604149654507637,-4.8779886128613725e-05,0.0016769809881225228,-0.001996381441131234,-0.0028359934221953154,-0.0030899292323738337,-0.0024233211297541857,-0.000453949993243441,0.0022260001860558987,-0.0017068906454369426,-0.001651344820857048,-0.001880073337815702,0.002886497648432851,-0.002092596609145403,-0.0010962303495034575,-0.0029432596638798714,0.001689986209385097,-0.002477911999449134,-0.0012938278960064054,0.0017151943175122142,-0.0019785526674240828,0.0024782526306807995,0.0009382767602801323,-0.0010702215367928147,-0.0023529103491455317,0.00015024792810436338,-0.0006543952622450888,-0.0013384035555645823,0.0021231533028185368,0.0010153524344787002,0.0033531594090163708,0.0019413159461691976,-0.0020894750487059355,-0.0012850932544097304,0.0011448144214227796,-0.0011012519244104624,-0.0026220777072012424,-0.0030947006307542324,-0.0028893821872770786,-0.0018686867551878095,0.003059097332879901,-0.002767903497442603,0.0017887316644191742,-0.0032456733752042055,0.0030491070356220007,-0.0015980640891939402,-0.0003481844032648951,0.0028413264080882072,-0.0025246827863156796,-0.003669572062790394,-0.0027294240426272154,-0.0025164352264255285,0.002195328939706087,-0.0027337183710187674,-0.0027267688419669867,-0.0018888632766902447,-0.0015603217761963606,-0.0009622877696529031,0.0025541605427861214,-0.0023295634891837835,-0.002874667290598154,-0.0018017381662502885,0.0027793783228844404,6.618580664508045e-05,-0.0011802880326285958,0.0013357981806620955,-0.0008876802166923881,-0.0028663366101682186,0.0005986061878502369,-0.0006578546017408371,-0.0013495510211214423,-0.0028980097267776728,-0.0002761340292636305,0.0023605141323059797,0.0005224954802542925,0.00235429173335433,0.0016230508917942643,0.00026440745568834245,0.00273266714066267,-0.0010716011747717857,-0.0031250843312591314,0.00203454471193254,-0.0003013599489349872,0.003230620874091983,-0.0005700665642507374,-0.002457551658153534,-0.0007620196556672454,0.0014245490310713649,-0.0016612393083050847,-0.002470915438607335,0.0005868772277608514,-0.0021802959963679314,0.00021496701810974628,0.002164098434150219,0.001016502850688994,-0.0034438231959939003,-0.002743995515629649,0.0005624718614853919,0.00022707688913214952,-0.0014252536930143833,0.0011943239951506257,0.002164044650271535,-0.0005083909491077065,0.0031967973336577415,0.0027232198044657707,0.0020568789914250374,0.00028956064488738775,-0.004018167499452829,-0.0007631908520124853,0.000697894545737654,-0.00324449990876019,0.002501517301425338,-0.0024542813189327717,0.000692252884618938,0.0022132573649287224,0.001997137675061822,0.002965020015835762,-0.00034321905695833266,0.0027748567517846823,-0.0019936920143663883,-0.0019621613901108503,0.0015388360479846597,-0.0037299294490367174,-0.00039476013625971973,-0.0017072120681405067,-0.0030117612332105637,-0.000621262879576534,-0.0038102276157587767,0.0026940167881548405,-0.002020256593823433,-0.00045452750055119395,0.002389514120295644,-0.002288063056766987,0.002786979079246521,0.00254912581294775,-0.0003548203967511654,0.00016935612075030804,0.0011896714568138123,0.0026554844807833433,-0.0010378716979175806,0.002487913006916642,0.0015181800117716193,-0.0019162031821906567,0.003224319312721491,0.0016083588125184178,0.0006839500856585801,-0.0009021211299113929,0.0014283137861639261,0.0007875983719713986,0.0015738301444798708,-0.0004008787218481302,0.0005826363922096789,-0.0014459838857874274,0.00046571908751502633,-4.3296000512782484e-05,0.0030390117317438126,0.0009051529341377318,0.0012948670191690326,0.0007734099053777754,-0.0037983194924890995,-0.002616243902593851,0.0027318212669342756,-0.0029189009219408035,-0.0015251088188961148,-0.0025461234617978334,-0.002909616567194462,0.0021717888303101063,-0.0037299913819879293,0.0002274268481414765,-0.0037249571178108454,-0.003238494973629713,0.0014998160768300295,0.0017166492762044072,0.0011060325196012855,0.000522723188623786,-0.0027708730194717646,0.0012071402743458748,-0.003245150437578559,-0.0005159452557563782,0.0026669378858059645,-0.003323477925732732,0.0030894819647073746,-0.0027205226942896843,-0.00412937393411994,-0.00394526356831193,0.0018217003671452403,0.001819467288441956,0.0018218784825876355,0.002934115007519722,-0.0033298858907073736,-0.0028600331861525774,-0.0013443594798445702,0.00048647038056515157,-0.00018568641098681837,-0.0037762082647532225,0.0021222305949777365,-0.0018781846156343818,0.0023354499135166407,0.0014422290259972215,0.003364310599863529,0.0025727106258273125,0.000713884481228888,-3.444307003519498e-05,-0.0002728519611991942,0.0015147774247452617,0.0022973681334406137,-0.0032987508457154036,0.0029949438758194447,0.00016123235400300473,-0.0033277033362537622,-0.0007368393708020449,0.001008579391054809,-0.003031956497579813,-0.0022928148973733187,-0.002430715598165989,-0.001624847180210054,0.0009418237023055553,-0.003062950447201729,-0.0020690946839749813,0.0019386605126783252,-0.0026668778154999018,-0.0027978792786598206,-0.0032095052301883698,0.0006339380634017289,-0.002290999749675393,0.000529266195371747,-0.0006216547917574644,-0.002906183246523142,0.001986169256269932,-0.0003200772625859827,-0.0001462532381992787,-0.000927575456444174,0.00238312897272408,0.0011112041538581252,-0.0023776786401867867,0.0027816782239824533,-0.0036095159593969584,-0.003328291466459632,-0.0002454757923260331,0.0023026373237371445,-0.0017690490931272507,-0.0019835259299725294,0.0025999085046350956,0.001518612145446241,-0.0007311676163226366,0.003111801575869322,0.001824258011765778,-0.0014128487091511488,0.0027786290738731623,-0.0006768988096155226,-0.0011756482999771833,-0.0020542757119983435,-0.00040779190021567047,-0.002430933527648449,0.0020093570929020643,0.0001903535012388602,-0.0024524268228560686,-0.0040196520276367664,-0.0035762570332735777,0.0006069593946449459,0.0031742434948682785,0.00042820442467927933,0.0019234498031437397,0.002984090941026807,-0.0033283934462815523,0.002736238297075033,0.002345290733501315,3.3673946745693684e-05,-0.0014922289410606027,-0.0025710626505315304,0.0015020975843071938,0.0023575101513415575,-0.001159750041551888,-0.0006329261814244092,0.0009451156947761774,-0.0036584208719432354,-0.0008479481912218034,0.0024238748010247946,0.00019328061898704618,0.0025712798815220594,0.0005296390736475587,-0.001599775394424796,0.0007427397067658603,0.002913252916187048,-0.0012876322725787759,0.00014560960698872805,0.0008837493951432407,0.0022088924888521433,-0.00100393733009696,-0.0030720827635377645,-0.0014326439704746008,-0.0005125401075929403,0.0014989166520535946,0.0012893009698018432,-0.002102020662277937,-0.002454398199915886,-0.0023443344980478287,-0.003067201003432274,0.0012031298829242587,0.002866237424314022,0.0009621885255910456,-0.0027699642814695835,-0.002589794807136059,0.0018407750176265836,0.0006506955833174288,0.001234078430570662,0.0019046992529183626,-0.0012274041073396802,-0.0003537032171152532,-0.001174708129838109,0.0033226674422621727,0.002309305127710104,0.0017390771536156535,-0.002857958199456334,-5.9505262470338494e-05,-0.002188771963119507,-0.0013707233592867851,-0.002524338196963072,-0.001506736851297319,-0.0006741582183167338,-0.0006794003420509398,0.002328456612303853,-0.0034085239749401808,-0.0035778828896582127,0.0009252657764591277,-0.001313258078880608,0.0005776548059657216,-0.002982164965942502,0.0009812104981392622,-0.002824093447998166,-0.004251023754477501,-0.002576200058683753,0.0018050026847049594,-0.0003025640326086432,0.002996364375576377,0.0019853198900818825,-0.0025558541528880596,0.0031470509711652994,0.0015738143119961023,-0.0037763447035104036,0.002689989050850272,0.0007578381337225437,-0.0030824928544461727,-0.0005930073675699532,0.0005829678266309202,-0.0024818868841975927,-0.0016610295278951526,0.0011809486895799637,0.0028196186758577824,0.002815533895045519,-0.002484683645889163,0.0006607010727748275,0.002169989515095949,-0.0010412544943392277,-0.002024032874032855,-0.0030601592734456062,0.0024575369898229837,-0.0027315595652908087,-0.002641701605170965,-0.0007556431810371578,0.001977410400286317,-0.002497941954061389,0.00043573687435127795,-0.0023488097358494997,-0.003227271605283022,-0.0033842024859040976,-0.0008239694871008396,-0.0017887682188302279,0.0024627011734992266,0.00013906315143685788,0.002537802094593644,-0.0001786525535862893,-0.0004250674683135003,0.0005145472241565585,0.002555042738094926,-0.0035880261566489935,6.364402361214161e-05,0.0013324361061677337,-0.0033354812767356634,-0.001502855564467609,0.0035395179875195026,0.0009483526810072362,-0.0005038703675381839,0.0028595728799700737,0.002453672233968973,-0.0018530909437686205,0.003067805664613843,0.0003844878519885242,-0.0030494704842567444,0.0023880687076598406,0.002557736588642001,0.0017531748162582517,0.001865902915596962,-0.0002795848995447159,-0.0011765051167458296,0.0018418340478092432,0.0028228177689015865,0.0015268924180418253,-0.001403665984980762,0.0018601759802550077,0.003184873377904296,-0.0009852093644440174,0.003145440947264433,-0.0022593012545257807,-0.0005497090169228613,0.003015330294147134,-0.0030352857429534197,0.002299949061125517,0.0007584895356558263,0.001935878535732627,-0.0030924382153898478,-2.6510982934269123e-05,-9.400243288837373e-05,-0.002253118669614196,0.0013772014062851667,-0.003361063078045845,-0.001184791442938149,-0.0018055926775559783,0.0003635266039054841,0.0009864936582744122,-0.0009215846075676382,0.003096323926001787,0.0031469499226659536,-0.0018974145641550422,0.0018695116741582751,0.0023920878302305937,-0.0007097639609128237,0.0006396592943929136,-0.0014052155893296003,0.002342591527849436,-0.0019018176244571805,-0.0026119807735085487,0.0022316526155918837,0.0008293690625578165,0.0013059577904641628,-0.0033870027400553226,0.001215395051985979,0.001776140765286982,-0.0021930530201643705,-0.0009482801542617381,0.000446148740593344,0.00030741834780201316,0.00010772175301099196,-0.0034840500447899103,-0.00292821298353374,0.0037041911855340004,0.0032128163147717714,0.002997935051098466,-0.0008089726907201111,0.0020473285112529993,0.0033592127729207277,0.000563422916457057,-0.0006800424307584763,0.0013431389816105366,0.002504955744370818,-2.203929216193501e-05,-0.0025223942939192057,0.00040856850682757795,-0.0008730760309845209,0.0030894125811755657,-3.764166831388138e-05,-0.0019275853410363197,-0.00075705093331635,0.0012272289022803307,0.001873019034974277,0.0032135648652911186,-0.0022533719893544912,0.0016731265932321548,0.003457306884229183,0.003431429620832205,-0.001640132861211896,-0.002151502761989832,0.0012239216594025493,-0.0030066012404859066,0.0013110776199027896,0.0002759760245680809,-0.00019667080778162926,-3.21968000207562e-05,0.0014082194538787007,0.0024591595865786076,-0.0015101947356015444,-0.0031514200381934643,-0.001446562702767551,0.002391417743638158,0.0001499279896961525,0.0005709566758014262,0.0014621114823967218,-0.0017363789957016706,-0.003019664203748107,-0.0010902377543970942,0.0004051631549373269,-0.0004903846420347691,0.001404386479407549,0.0009534457349218428,-0.0003210991562809795,-0.00013596375356428325,0.0031293004285544157,-0.0008207840146496892,0.0029389900155365467,0.0030753999017179012,0.0010285725584253669,0.0009641670039854944,0.0030658463947474957,-0.002777788555249572,-0.00290671200491488,0.003205585526302457,-0.0029946533031761646,-0.0016399285523220897,0.0007324546459130943,-0.002399170072749257,-0.0006494999397546053,0.0017308061942458153,-0.00014527919120155275,-0.00219570635817945,-0.00284422654658556,-0.0012575461296364665,0.0033329681027680635,0.0015649809502065182,-0.0008436747593805194,0.0017635197145864367,0.0026848092675209045,0.00050748122157529,-0.003159778192639351,0.0014098308747634292,0.002277540508657694,0.002353064715862274,0.00011079217802034691,0.0035313281696289778,-0.003290486056357622,-0.0010057938052341342,0.0016054495936259627,-0.002078019781038165,-0.00029558478854596615,0.0009143241913989186,-0.0003945222997572273,0.0013418305898085237,0.0002993302186951041,-0.003052616724744439,-0.003258159849792719,-0.0025360730942338705,0.0035025246907025576,0.0018811956979334354,-0.0010359188308939338,0.0012429173802956939,0.002835951978340745,-0.0025844865012913942,0.0027753510512411594,-0.0005237372242845595,0.0023100764956325293,0.0012773803900927305,-0.0023864293470978737,-0.0031622303649783134,0.0008281764457933605,7.136150088626891e-05,0.0016440857434645295,0.0035739524755626917,-1.621562296350021e-05,-0.0006453984533436596,-0.0018915735417976975,0.002744622528553009,0.0024345628917217255,-0.00020969330216757953,0.0027709095738828182,-0.002205648459494114,-0.0010058876359835267,-0.000581242551561445,0.0014065508730709553,0.0017266306094825268,-0.0033936703111976385,-0.0027755387127399445,-0.002784142969176173,-0.003498464822769165,-0.0025379781145602465,-0.002283223904669285,-0.0014153801603242755,-0.0006034149555489421,-0.0012028093915432692,0.0020014767069369555,0.0007447205134667456,0.000748237653169781,-0.002683548256754875,0.0018140950705856085,0.0028584483079612255,0.0005218699807301164,0.0020873441826552153,0.001925277290865779,0.0023734639398753643,0.003991029225289822,0.0034622098319232464,0.002181622199714184,0.002568175783380866,-0.0024726123083382845,-0.003123981412500143,-0.0030098201241344213,-0.00240566348657012,0.0005989293567836285,-0.00195570127107203,-0.002152837347239256,-0.0005923295975662768,-0.0027928801719099283,-0.0014471770264208317,0.003021279349923134,-0.0027800151146948338,-0.0002890215255320072,-0.0032650798093527555,-0.0022422154434025288,0.0024989652447402477,0.002715698443353176,0.003510803449898958,-0.002030440606176853,0.0006953160627745092,0.0028741792775690556,-0.0007511662552133203,-0.0022211829200387,-0.000754181353840977,0.0014816541224718094,-0.0008502653217874467,-0.001696941675618291,0.0022677606903016567,0.00048164775944314897,0.002017274033278227,-0.00011985103628830984,-0.003266118234023452,-0.0008446877473033965,0.0033351059537380934,-0.0022807451896369457,-0.0007874632719904184,0.0001508242276031524,-0.0014125173911452293,-0.0010436451993882656,0.0028101352509111166,0.0040248422883450985,0.002178193535655737,-0.0027273206505924463,0.0034264270216226578,0.002472232561558485,0.0026603350415825844,0.0022540467325598,-0.0014796878676861525,-0.00130544975399971,-0.0014238767325878143,0.0023615951649844646,0.00355666340328753,-0.0004869590629823506,0.002433231333270669,0.0012347312876954675,0.0014156309189274907,0.002682507736608386,-0.0028912012930959463,0.0008802297525107861,-0.001161595224402845,-0.0005800517392344773,-0.0004663999134209007,-0.0005799975479021668,0.003293482353910804,-0.003098113462328911,0.0034606782719492912,0.0001468685659347102,0.001328056212514639,0.0034298028331249952,-0.0005818497156724334,0.0023695407435297966,0.00024496263358742,0.0012675384059548378,0.0012269822182133794,0.0025095343589782715,0.0030522700399160385,-0.0021341978572309017,0.0002843847614713013,0.0004770760133396834,0.0008286879165098071,0.0004572369216475636,0.0008132181246764958,-0.002777117770165205,0.0030181247275322676,-0.0009575210860930383,-0.0030819789972156286,0.0031502044294029474,-0.0021049517672508955,0.0010369827505201101,0.0018364288844168186,0.003480179002508521,-0.0005967463948763907,0.0006223638192750514,-0.0013624645071104169,-0.001825197832658887,0.0007279290584847331,0.0012134711723774672,-0.0027794470079243183,-0.003201456507667899,0.0036778890062123537,0.0016653425991535187,-0.003309745341539383,0.0019239240791648626,0.0020705158822238445,0.0004610782489180565,6.897529237903655e-05,0.0035048192366957664,0.0023849515710026026,-0.0006047830102033913,-0.000590943731367588,-0.0026622277218848467,-0.0003396548854652792,0.0018794332863762975,0.001561749610118568,-0.003534660441800952,0.0034931867849081755,-0.002921560313552618,0.0015646966639906168,0.001251380192115903,-0.0013514186721295118,-0.0033237417228519917,-0.001760989660397172,-0.000235823419643566,-0.0008168398635461926,-0.002110995352268219,0.0033277389593422413,-0.0015601571649312973,-0.0016875764122232795,-0.001216615317389369,-0.0006804611766710877,-0.0034347756300121546,-0.0012755484785884619,-0.0012823354918509722,-0.0006407032487913966,0.0019066460663452744,0.0017452972242608666,-0.00010808438673848286,0.0004347564245108515,0.0034263755660504103,0.0022314784582704306,-0.001653502811677754,-0.0022371134255081415,0.0030983667820692062,-0.0032595752272754908,0.0003973298007622361,0.0034961195196956396,-0.0004452015564311296,-0.003513555508106947,-0.0030380715616047382,-0.00046075243153609335,0.0008699533645994961,0.0015612540300935507,-0.0021161052864044905,0.002944078529253602,0.0020294878631830215,0.0027374194469302893,5.356389010557905e-05,0.002880298998206854,0.0016891342820599675,-0.001852339832112193,-0.003190552582964301,-0.002780601382255554,0.00027338232030160725,0.002571610501036048,-0.0004092510789632797,-0.0035805075895041227,-0.0016836909344419837,0.0034089575055986643,-0.0002490903134457767,-0.0018593320855870843,0.0029596760869026184,-0.002082973485812545,-6.828177720308304e-05,0.003026536898687482,-0.002073667012155056,-0.001191816758364439,0.001161658437922597,-0.003557860152795911,0.0031009833328425884,-0.0032510526943951845,-0.003421437693759799,-0.00014771685528103262,-0.0006930070812813938,0.0025787674821913242,-0.0025922555942088366,-0.00039645686047151685,-0.001651844708248973,-0.0006768935709260404,-0.0013325244653970003,-0.0012211792636662722,-0.0027318568900227547,0.0026376221794635057,0.0008307531243190169,0.002597962273284793,0.0010468040127307177,0.0022314717061817646,-0.003183734370395541,-0.0026406391989439726,-0.0036319326609373093,0.0011545467423275113,0.0019775978289544582,0.002156097674742341,0.002685331739485264,8.688014349900186e-05,-0.002125364961102605,-0.003182309912517667,-0.0010333802783861756,-0.000562413886655122,0.0009852530201897025,0.0006190109997987747,-0.003023145254701376,-0.001462737563997507,0.0013082452351227403,-0.0024861975107342005,-0.0004595483769662678,0.002329014940187335,-0.0033679595217108727,-0.0036995145492255688,0.002864198060706258,0.0019553336314857006,0.0023257059510797262,-0.002516767242923379,0.00167511822655797,1.6254618458333425e-05,-0.0031425098422914743,0.003063446842133999,0.0015117076691240072,-0.003126427996903658,0.0026643730234354734,-0.0022472660057246685,0.00048292233259417117,-0.0026786010712385178,-0.0009688236168585718,0.0006249169236980379,0.0032652628142386675,0.00010018314787885174,0.0014032939216122031,-0.0038803096394985914,0.0011319008190184832,-0.0006806965102441609,-0.00014140226994641125,-0.00019574904581531882,0.0020410525612533092,0.0028216876089572906,0.0028476028237491846,-7.519805512856692e-05,-0.002652830444276333,-0.00035539784585125744,-0.0018368181772530079,0.0004599456151481718,0.0011042762780562043,-0.00017245023627765477,-0.003011278109624982,